{"learner":{"attributes":{"scikit_learn":"{\"_estimator_type\": \"classifier\"}"},"feature_names":["abdominal_pain","abnormal_menstruation","acidity","acute_liver_failure","altered_sensorium","anxiety","back_pain","belly_pain","blackheads","bladder_discomfort","blister","blood_in_sputum","bloody_stool","blurred_and_distorted_vision","breathlessness","brittle_nails","bruising","burning_micturition","chest_pain","chills","cold_hands_and_feets","coma","congestion","constipation","continuous_feel_of_urine","continuous_sneezing","cough","cramps","dark_urine","dehydration","depression","diarrhoea","dischromic _patches","distention_of_abdomen","dizziness","drying_and_tingling_lips","enlarged_thyroid","excessive_hunger","extra_marital_contacts","family_history","fast_heart_rate","fatigue","fluid_overload","foul_smell_of urine","headache","high_fever","hip_joint_pain","history_of_alcohol_consumption","increased_appetite","indigestion","inflammatory_nails","internal_itching","irregular_sugar_level","irritability","irritation_in_anus","itching","joint_pain","knee_pain","lack_of_concentration","lethargy","loss_of_appetite","loss_of_balance","loss_of_smell","loss_of_taste","malaise","mild_fever","mood_swings","movement_stiffness","mucoid_sputum","muscle_pain","muscle_wasting","muscle_weakness","nausea","neck_pain","nodal_skin_eruptions","obesity","pain_behind_the_eyes","pain_during_bowel_movements","pain_in_anal_region","painful_walking","palpitations","passage_of_gases","patches_in_throat","phlegm","polyuria","prominent_veins_on_calf","puffy_face_and_eyes","pus_filled_pimples","receiving_blood_transfusion","receiving_unsterile_injections","red_sore_around_nose","red_spots_over_body","redness_of_eyes","restlessness","runny_nose","rusty_sputum","scurring","shivering","silver_like_dusting","sinus_pressure","skin_peeling","skin_rash","slurred_speech","small_dents_in_nails","spinning_movements","spotting_ urination","stiff_neck","stomach_bleeding","stomach_pain","sunken_eyes","sweating","swelled_lymph_nodes","swelling_joints","swelling_of_stomach","swollen_blood_vessels","swollen_extremeties","swollen_legs","throat_irritation","tiredness","toxic_look_(typhos)","ulcers_on_tongue","unsteadiness","visual_disturbances","vomiting","watering_from_eyes","weakness_in_limbs","weakness_of_one_body_side","weight_gain","weight_loss","yellow_crust_ooze","yellow_urine","yellowing_of_eyes","yellowish_skin"],"feature_types":["i","i","i","i","i","i","i","i","i","i","i","i","i","i","i","i","i","i","i","i","i","i","i","i","i","i","i","i","i","i","i","i","i","i","i","i","i","i","i","i","i","i","i","i","i","i","i","i","i","i","i","i","i","i","i","i","i","i","i","i","i","i","i","i","i","i","i","i","i","i","i","i","i","i","i","i","i","i","i","i","i","i","i","i","i","i","i","i","i","i","i","i","i","i","i","i","i","i","i","i","i","i","i","i","i","i","i","i","i","i","i","i","i","i","i","i","i","i","i","i","i","i","i","i","i","i","i","i","i","i","i","i","i"],"gradient_booster":{"model":{"gbtree_model_param":{"num_parallel_tree":"1","num_trees":"4200"},"iteration_indptr":[0,42,84,126,168,210,252,294,336,378,420,462,504,546,588,630,672,714,756,798,840,882,924,966,1008,1050,1092,1134,1176,1218,1260,1302,1344,1386,1428,1470,1512,1554,1596,1638,1680,1722,1764,1806,1848,1890,1932,1974,2016,2058,2100,2142,2184,2226,2268,2310,2352,2394,2436,2478,2520,2562,2604,2646,2688,2730,2772,2814,2856,2898,2940,2982,3024,3066,3108,3150,3192,3234,3276,3318,3360,3402,3444,3486,3528,3570,3612,3654,3696,3738,3780,3822,3864,3906,3948,3990,4032,4074,4116,4158,4200],"tree_info":[0,1,2,3,4,5,6,7,8,9,10,11,12,13,14,15,16,17,18,19,20,21,22,23,24,25,26,27,28,29,30,31,32,33,34,35,36,37,38,39,40,41,0,1,2,3,4,5,6,7,8,9,10,11,12,13,14,15,16,17,18,19,20,21,22,23,24,25,26,27,28,29,30,31,32,33,34,35,36,37,38,39,40,41,0,1,2,3,4,5,6,7,8,9,10,11,12,13,14,15,16,17,18,19,20,21,22,23,24,25,26,27,28,29,30,31,32,33,34,35,36,37,38,39,40,41,0,1,2,3,4,5,6,7,8,9,10,11,12,13,14,15,16,17,18,19,20,21,22,23,24,25,26,27,28,29,30,31,32,33,34,35,36,37,38,39,40,41,0,1,2,3,4,5,6,7,8,9,10,11,12,13,14,15,16,17,18,19,20,21,22,23,24,25,26,27,28,29,30,31,32,33,34,35,36,37,38,39,40,41,0,1,2,3,4,5,6,7,8,9,10,11,12,13,14,15,16,17,18,19,20,21,22,23,24,25,26,27,28,29,30,31,32,33,34,35,36,37,38,39,40,41,0,1,2,3,4,5,6,7,8,9,10,11,12,13,14,15,16,17,18,19,20,21,22,23,24,25,26,27,28,29,30,31,32,33,34,35,36,37,38,39,40,41,0,1,2,3,4,5,6,7,8,9,10,11,12,13,14,15,16,17,18,19,20,21,22,23,24,25,26,27,28,29,30,31,32,33,34,35,36,37,38,39,40,41,0,1,2,3,4,5,6,7,8,9,10,11,12,13,14,15,16,17,18,19,20,21,22,23,24,25,26,27,28,29,30,31,32,33,34,35,36,37,38,39,40,41,0,1,2,3,4,5,6,7,8,9,10,11,12,13,14,15,16,17,18,19,20,21,22,23,24,25,26,27,28,29,30,31,32,33,34,35,36,37,38,39,40,41,0,1,2,3,4,5,6,7,8,9,10,11,12,13,14,15,16,17,18,19,20,21,22,23,24,25,26,27,28,29,30,31,32,33,34,35,36,37,38,39,40,41,0,1,2,3,4,5,6,7,8,9,10,11,12,13,14,15,16,17,18,19,20,21,22,23,24,25,26,27,28,29,30,31,32,33,34,35,36,37,38,39,40,41,0,1,2,3,4,5,6,7,8,9,10,11,12,13,14,15,16,17,18,19,20,21,22,23,24,25,26,27,28,29,30,31,32,33,34,35,36,37,38,39,40,41,0,1,2,3,4,5,6,7,8,9,10,11,12,13,14,15,16,17,18,19,20,21,22,23,24,25,26,27,28,29,30,31,32,33,34,35,36,37,38,39,40,41,0,1,2,3,4,5,6,7,8,9,10,11,12,13,14,15,16,17,18,19,20,21,22,23,24,25,26,27,28,29,30,31,32,33,34,35,36,37,38,39,40,41,0,1,2,3,4,5,6,7,8,9,10,11,12,13,14,15,16,17,18,19,20,21,22,23,24,25,26,27,28,29,30,31,32,33,34,35,36,37,38,39,40,41,0,1,2,3,4,5,6,7,8,9,10,11,12,13,14,15,16,17,18,19,20,21,22,23,24,25,26,27,28,29,30,31,32,33,34,35,36,37,38,39,40,41,0,1,2,3,4,5,6,7,8,9,10,11,12,13,14,15,16,17,18,19,20,21,22,23,24,25,26,27,28,29,30,31,32,33,34,35,36,37,38,39,40,41,0,1,2,3,4,5,6,7,8,9,10,11,12,13,14,15,16,17,18,19,20,21,22,23,24,25,26,27,28,29,30,31,32,33,34,35,36,37,38,39,40,41,0,1,2,3,4,5,6,7,8,9,10,11,12,13,14,15,16,17,18,19,20,21,22,23,24,25,26,27,28,29,30,31,32,33,34,35,36,37,38,39,40,41,0,1,2,3,4,5,6,7,8,9,10,11,12,13,14,15,16,17,18,19,20,21,22,23,24,25,26,27,28,29,30,31,32,33,34,35,36,37,38,39,40,41,0,1,2,3,4,5,6,7,8,9,10,11,12,13,14,15,16,17,18,19,20,21,22,23,24,25,26,27,28,29,30,31,32,33,34,35,36,37,38,39,40,41,0,1,2,3,4,5,6,7,8,9,10,11,12,13,14,15,16,17,18,19,20,21,22,23,24,25,26,27,28,29,30,31,32,33,34,35,36,37,38,39,40,41,0,1,2,3,4,5,6,7,8,9,10,11,12,13,14,15,16,17,18,19,20,21,22,23,24,25,26,27,28,29,30,31,32,33,34,35,36,37,38,39,40,41,0,1,2,3,4,5,6,7,8,9,10,11,12,13,14,15,16,17,18,19,20,21,22,23,24,25,26,27,28,29,30,31,32,33,34,35,36,37,38,39,40,41,0,1,2,3,4,5,6,7,8,9,10,11,12,13,14,15,16,17,18,19,20,21,22,23,24,25,26,27,28,29,30,31,32,33,34,35,36,37,38,39,40,41,0,1,2,3,4,5,6,7,8,9,10,11,12,13,14,15,16,17,18,19,20,21,22,23,24,25,26,27,28,29,30,31,32,33,34,35,36,37,38,39,40,41,0,1,2,3,4,5,6,7,8,9,10,11,12,13,14,15,16,17,18,19,20,21,22,23,24,25,26,27,28,29,30,31,32,33,34,35,36,37,38,39,40,41,0,1,2,3,4,5,6,7,8,9,10,11,12,13,14,15,16,17,18,19,20,21,22,23,24,25,26,27,28,29,30,31,32,33,34,35,36,37,38,39,40,41,0,1,2,3,4,5,6,7,8,9,10,11,12,13,14,15,16,17,18,19,20,21,22,23,24,25,26,27,28,29,30,31,32,33,34,35,36,37,38,39,40,41,0,1,2,3,4,5,6,7,8,9,10,11,12,13,14,15,16,17,18,19,20,21,22,23,24,25,26,27,28,29,30,31,32,33,34,35,36,37,38,39,40,41,0,1,2,3,4,5,6,7,8,9,10,11,12,13,14,15,16,17,18,19,20,21,22,23,24,25,26,27,28,29,30,31,32,33,34,35,36,37,38,39,40,41,0,1,2,3,4,5,6,7,8,9,10,11,12,13,14,15,16,17,18,19,20,21,22,23,24,25,26,27,28,29,30,31,32,33,34,35,36,37,38,39,40,41,0,1,2,3,4,5,6,7,8,9,10,11,12,13,14,15,16,17,18,19,20,21,22,23,24,25,26,27,28,29,30,31,32,33,34,35,36,37,38,39,40,41,0,1,2,3,4,5,6,7,8,9,10,11,12,13,14,15,16,17,18,19,20,21,22,23,24,25,26,27,28,29,30,31,32,33,34,35,36,37,38,39,40,41,0,1,2,3,4,5,6,7,8,9,10,11,12,13,14,15,16,17,18,19,20,21,22,23,24,25,26,27,28,29,30,31,32,33,34,35,36,37,38,39,40,41,0,1,2,3,4,5,6,7,8,9,10,11,12,13,14,15,16,17,18,19,20,21,22,23,24,25,26,27,28,29,30,31,32,33,34,35,36,37,38,39,40,41,0,1,2,3,4,5,6,7,8,9,10,11,12,13,14,15,16,17,18,19,20,21,22,23,24,25,26,27,28,29,30,31,32,33,34,35,36,37,38,39,40,41,0,1,2,3,4,5,6,7,8,9,10,11,12,13,14,15,16,17,18,19,20,21,22,23,24,25,26,27,28,29,30,31,32,33,34,35,36,37,38,39,40,41,0,1,2,3,4,5,6,7,8,9,10,11,12,13,14,15,16,17,18,19,20,21,22,23,24,25,26,27,28,29,30,31,32,33,34,35,36,37,38,39,40,41,0,1,2,3,4,5,6,7,8,9,10,11,12,13,14,15,16,17,18,19,20,21,22,23,24,25,26,27,28,29,30,31,32,33,34,35,36,37,38,39,40,41,0,1,2,3,4,5,6,7,8,9,10,11,12,13,14,15,16,17,18,19,20,21,22,23,24,25,26,27,28,29,30,31,32,33,34,35,36,37,38,39,40,41,0,1,2,3,4,5,6,7,8,9,10,11,12,13,14,15,16,17,18,19,20,21,22,23,24,25,26,27,28,29,30,31,32,33,34,35,36,37,38,39,40,41,0,1,2,3,4,5,6,7,8,9,10,11,12,13,14,15,16,17,18,19,20,21,22,23,24,25,26,27,28,29,30,31,32,33,34,35,36,37,38,39,40,41,0,1,2,3,4,5,6,7,8,9,10,11,12,13,14,15,16,17,18,19,20,21,22,23,24,25,26,27,28,29,30,31,32,33,34,35,36,37,38,39,40,41,0,1,2,3,4,5,6,7,8,9,10,11,12,13,14,15,16,17,18,19,20,21,22,23,24,25,26,27,28,29,30,31,32,33,34,35,36,37,38,39,40,41,0,1,2,3,4,5,6,7,8,9,10,11,12,13,14,15,16,17,18,19,20,21,22,23,24,25,26,27,28,29,30,31,32,33,34,35,36,37,38,39,40,41,0,1,2,3,4,5,6,7,8,9,10,11,12,13,14,15,16,17,18,19,20,21,22,23,24,25,26,27,28,29,30,31,32,33,34,35,36,37,38,39,40,41,0,1,2,3,4,5,6,7,8,9,10,11,12,13,14,15,16,17,18,19,20,21,22,23,24,25,26,27,28,29,30,31,32,33,34,35,36,37,38,39,40,41,0,1,2,3,4,5,6,7,8,9,10,11,12,13,14,15,16,17,18,19,20,21,22,23,24,25,26,27,28,29,30,31,32,33,34,35,36,37,38,39,40,41,0,1,2,3,4,5,6,7,8,9,10,11,12,13,14,15,16,17,18,19,20,21,22,23,24,25,26,27,28,29,30,31,32,33,34,35,36,37,38,39,40,41,0,1,2,3,4,5,6,7,8,9,10,11,12,13,14,15,16,17,18,19,20,21,22,23,24,25,26,27,28,29,30,31,32,33,34,35,36,37,38,39,40,41,0,1,2,3,4,5,6,7,8,9,10,11,12,13,14,15,16,17,18,19,20,21,22,23,24,25,26,27,28,29,30,31,32,33,34,35,36,37,38,39,40,41,0,1,2,3,4,5,6,7,8,9,10,11,12,13,14,15,16,17,18,19,20,21,22,23,24,25,26,27,28,29,30,31,32,33,34,35,36,37,38,39,40,41,0,1,2,3,4,5,6,7,8,9,10,11,12,13,14,15,16,17,18,19,20,21,22,23,24,25,26,27,28,29,30,31,32,33,34,35,36,37,38,39,40,41,0,1,2,3,4,5,6,7,8,9,10,11,12,13,14,15,16,17,18,19,20,21,22,23,24,25,26,27,28,29,30,31,32,33,34,35,36,37,38,39,40,41,0,1,2,3,4,5,6,7,8,9,10,11,12,13,14,15,16,17,18,19,20,21,22,23,24,25,26,27,28,29,30,31,32,33,34,35,36,37,38,39,40,41,0,1,2,3,4,5,6,7,8,9,10,11,12,13,14,15,16,17,18,19,20,21,22,23,24,25,26,27,28,29,30,31,32,33,34,35,36,37,38,39,40,41,0,1,2,3,4,5,6,7,8,9,10,11,12,13,14,15,16,17,18,19,20,21,22,23,24,25,26,27,28,29,30,31,32,33,34,35,36,37,38,39,40,41,0,1,2,3,4,5,6,7,8,9,10,11,12,13,14,15,16,17,18,19,20,21,22,23,24,25,26,27,28,29,30,31,32,33,34,35,36,37,38,39,40,41,0,1,2,3,4,5,6,7,8,9,10,11,12,13,14,15,16,17,18,19,20,21,22,23,24,25,26,27,28,29,30,31,32,33,34,35,36,37,38,39,40,41,0,1,2,3,4,5,6,7,8,9,10,11,12,13,14,15,16,17,18,19,20,21,22,23,24,25,26,27,28,29,30,31,32,33,34,35,36,37,38,39,40,41,0,1,2,3,4,5,6,7,8,9,10,11,12,13,14,15,16,17,18,19,20,21,22,23,24,25,26,27,28,29,30,31,32,33,34,35,36,37,38,39,40,41,0,1,2,3,4,5,6,7,8,9,10,11,12,13,14,15,16,17,18,19,20,21,22,23,24,25,26,27,28,29,30,31,32,33,34,35,36,37,38,39,40,41,0,1,2,3,4,5,6,7,8,9,10,11,12,13,14,15,16,17,18,19,20,21,22,23,24,25,26,27,28,29,30,31,32,33,34,35,36,37,38,39,40,41,0,1,2,3,4,5,6,7,8,9,10,11,12,13,14,15,16,17,18,19,20,21,22,23,24,25,26,27,28,29,30,31,32,33,34,35,36,37,38,39,40,41,0,1,2,3,4,5,6,7,8,9,10,11,12,13,14,15,16,17,18,19,20,21,22,23,24,25,26,27,28,29,30,31,32,33,34,35,36,37,38,39,40,41,0,1,2,3,4,5,6,7,8,9,10,11,12,13,14,15,16,17,18,19,20,21,22,23,24,25,26,27,28,29,30,31,32,33,34,35,36,37,38,39,40,41,0,1,2,3,4,5,6,7,8,9,10,11,12,13,14,15,16,17,18,19,20,21,22,23,24,25,26,27,28,29,30,31,32,33,34,35,36,37,38,39,40,41,0,1,2,3,4,5,6,7,8,9,10,11,12,13,14,15,16,17,18,19,20,21,22,23,24,25,26,27,28,29,30,31,32,33,34,35,36,37,38,39,40,41,0,1,2,3,4,5,6,7,8,9,10,11,12,13,14,15,16,17,18,19,20,21,22,23,24,25,26,27,28,29,30,31,32,33,34,35,36,37,38,39,40,41,0,1,2,3,4,5,6,7,8,9,10,11,12,13,14,15,16,17,18,19,20,21,22,23,24,25,26,27,28,29,30,31,32,33,34,35,36,37,38,39,40,41,0,1,2,3,4,5,6,7,8,9,10,11,12,13,14,15,16,17,18,19,20,21,22,23,24,25,26,27,28,29,30,31,32,33,34,35,36,37,38,39,40,41,0,1,2,3,4,5,6,7,8,9,10,11,12,13,14,15,16,17,18,19,20,21,22,23,24,25,26,27,28,29,30,31,32,33,34,35,36,37,38,39,40,41,0,1,2,3,4,5,6,7,8,9,10,11,12,13,14,15,16,17,18,19,20,21,22,23,24,25,26,27,28,29,30,31,32,33,34,35,36,37,38,39,40,41,0,1,2,3,4,5,6,7,8,9,10,11,12,13,14,15,16,17,18,19,20,21,22,23,24,25,26,27,28,29,30,31,32,33,34,35,36,37,38,39,40,41,0,1,2,3,4,5,6,7,8,9,10,11,12,13,14,15,16,17,18,19,20,21,22,23,24,25,26,27,28,29,30,31,32,33,34,35,36,37,38,39,40,41,0,1,2,3,4,5,6,7,8,9,10,11,12,13,14,15,16,17,18,19,20,21,22,23,24,25,26,27,28,29,30,31,32,33,34,35,36,37,38,39,40,41,0,1,2,3,4,5,6,7,8,9,10,11,12,13,14,15,16,17,18,19,20,21,22,23,24,25,26,27,28,29,30,31,32,33,34,35,36,37,38,39,40,41,0,1,2,3,4,5,6,7,8,9,10,11,12,13,14,15,16,17,18,19,20,21,22,23,24,25,26,27,28,29,30,31,32,33,34,35,36,37,38,39,40,41,0,1,2,3,4,5,6,7,8,9,10,11,12,13,14,15,16,17,18,19,20,21,22,23,24,25,26,27,28,29,30,31,32,33,34,35,36,37,38,39,40,41,0,1,2,3,4,5,6,7,8,9,10,11,12,13,14,15,16,17,18,19,20,21,22,23,24,25,26,27,28,29,30,31,32,33,34,35,36,37,38,39,40,41,0,1,2,3,4,5,6,7,8,9,10,11,12,13,14,15,16,17,18,19,20,21,22,23,24,25,26,27,28,29,30,31,32,33,34,35,36,37,38,39,40,41,0,1,2,3,4,5,6,7,8,9,10,11,12,13,14,15,16,17,18,19,20,21,22,23,24,25,26,27,28,29,30,31,32,33,34,35,36,37,38,39,40,41,0,1,2,3,4,5,6,7,8,9,10,11,12,13,14,15,16,17,18,19,20,21,22,23,24,25,26,27,28,29,30,31,32,33,34,35,36,37,38,39,40,41,0,1,2,3,4,5,6,7,8,9,10,11,12,13,14,15,16,17,18,19,20,21,22,23,24,25,26,27,28,29,30,31,32,33,34,35,36,37,38,39,40,41,0,1,2,3,4,5,6,7,8,9,10,11,12,13,14,15,16,17,18,19,20,21,22,23,24,25,26,27,28,29,30,31,32,33,34,35,36,37,38,39,40,41,0,1,2,3,4,5,6,7,8,9,10,11,12,13,14,15,16,17,18,19,20,21,22,23,24,25,26,27,28,29,30,31,32,33,34,35,36,37,38,39,40,41,0,1,2,3,4,5,6,7,8,9,10,11,12,13,14,15,16,17,18,19,20,21,22,23,24,25,26,27,28,29,30,31,32,33,34,35,36,37,38,39,40,41,0,1,2,3,4,5,6,7,8,9,10,11,12,13,14,15,16,17,18,19,20,21,22,23,24,25,26,27,28,29,30,31,32,33,34,35,36,37,38,39,40,41,0,1,2,3,4,5,6,7,8,9,10,11,12,13,14,15,16,17,18,19,20,21,22,23,24,25,26,27,28,29,30,31,32,33,34,35,36,37,38,39,40,41,0,1,2,3,4,5,6,7,8,9,10,11,12,13,14,15,16,17,18,19,20,21,22,23,24,25,26,27,28,29,30,31,32,33,34,35,36,37,38,39,40,41,0,1,2,3,4,5,6,7,8,9,10,11,12,13,14,15,16,17,18,19,20,21,22,23,24,25,26,27,28,29,30,31,32,33,34,35,36,37,38,39,40,41,0,1,2,3,4,5,6,7,8,9,10,11,12,13,14,15,16,17,18,19,20,21,22,23,24,25,26,27,28,29,30,31,32,33,34,35,36,37,38,39,40,41,0,1,2,3,4,5,6,7,8,9,10,11,12,13,14,15,16,17,18,19,20,21,22,23,24,25,26,27,28,29,30,31,32,33,34,35,36,37,38,39,40,41,0,1,2,3,4,5,6,7,8,9,10,11,12,13,14,15,16,17,18,19,20,21,22,23,24,25,26,27,28,29,30,31,32,33,34,35,36,37,38,39,40,41,0,1,2,3,4,5,6,7,8,9,10,11,12,13,14,15,16,17,18,19,20,21,22,23,24,25,26,27,28,29,30,31,32,33,34,35,36,37,38,39,40,41,0,1,2,3,4,5,6,7,8,9,10,11,12,13,14,15,16,17,18,19,20,21,22,23,24,25,26,27,28,29,30,31,32,33,34,35,36,37,38,39,40,41,0,1,2,3,4,5,6,7,8,9,10,11,12,13,14,15,16,17,18,19,20,21,22,23,24,25,26,27,28,29,30,31,32,33,34,35,36,37,38,39,40,41,0,1,2,3,4,5,6,7,8,9,10,11,12,13,14,15,16,17,18,19,20,21,22,23,24,25,26,27,28,29,30,31,32,33,34,35,36,37,38,39,40,41],"trees":[{"base_weights":[3.3065554E-2,-4.8711002E-1,5.1467E0,-1.5276164E-1,-3.987659E-2,-1.2576663E-1,1.1469992E-1],"categories":[],"categories_nodes":[],"categories_segments":[],"categories_sizes":[],"default_left":[0,0,0,0,0,0,0],"id":0,"left_children":[1,3,-1,-1,5,-1,-1],"loss_changes":[1.6502096E3,1.7571907E0,0E0,0E0,1.6903689E0,0E0,0E0],"parents":[2147483647,0,0,1,1,4,4],"right_children":[2,4,-1,-1,6,-1,-1],"split_conditions":[1E0,1E0,5.1467E0,-1.5276164E-1,1E0,-1.2576663E-1,1.1469992E-1],"split_indices":[121,61,0,0,44,0,0],"split_type":[0,0,0,0,0,0,0],"sum_hessian":[1.8333786E2,1.7887527E2,4.462585E0,1.7032199E2,8.5532875E0,4.5090704E0,4.0442176E0],"tree_param":{"num_deleted":"0","num_feature":"133","num_nodes":"7","size_leaf_vector":"1"}},{"base_weights":[-3.20323E-2,-4.7059307E-1,4.9779444E0,-1.5251179E-1,-3.5430372E-1,1.4071736E-1,-1.4951374E-1,6.297828E-1,-1.2773529E-1,6.0967743E-1,-1.2044118E-1],"categories":[],"categories_nodes":[],"categories_segments":[],"categories_sizes":[],"default_left":[0,0,0,0,0,0,0,0,0,0,0],"id":1,"left_children":[1,3,-1,-1,5,7,-1,9,-1,-1,-1],"loss_changes":[1.351844E3,6.1320496E-1,0E0,0E0,3.4634266E0,3.4558704E0,0E0,1.0330035E1,0E0,0E0,0E0],"parents":[2147483647,0,0,1,1,4,4,5,5,7,7],"right_children":[2,4,-1,-1,6,8,-1,10,-1,-1,-1],"split_conditions":[1E0,1E0,4.9779444E0,-1.5251179E-1,1E0,1E0,-1.4951374E-1,1E0,-1.2773529E-1,6.0967743E-1,-1.2044118E-1],"split_indices":[82,45,0,0,41,19,0,101,0,0,0],"split_type":[0,0,0,0,0,0,0,0,0,0,0],"sum_hessian":[1.8333786E2,1.7957256E2,3.765306E0,1.3299432E2,4.657823E1,1.0505669E1,3.6072563E1,5.5782313E0,4.927438E0,1.9523809E0,3.6258502E0],"tree_param":{"num_deleted":"0","num_feature":"133","num_nodes":"11","size_leaf_vector":"1"}},{"base_weights":[2.221591E-2,-4.5387414E-1,5.06245E0,-1.5266843E-1,-1.0874203E-1,2.1608669E-1,-1.4148402E-1,1.0419041E0,-1.3593568E-1,9.863115E-1,-1.2291289E-1],"categories":[],"categories_nodes":[],"categories_segments":[],"categories_sizes":[],"default_left":[0,0,0,0,0,0,0,0,0,0,0],"id":2,"left_children":[1,3,-1,-1,5,7,-1,9,-1,-1,-1],"loss_changes":[1.4866687E3,3.367443E0,0E0,0E0,3.1731048E0,8.449068E0,0E0,2.3398443E1,0E0,0E0,0E0],"parents":[2147483647,0,0,1,1,4,4,5,5,7,7],"right_children":[2,4,-1,-1,6,8,-1,10,-1,-1,-1],"split_conditions":[1E0,1E0,5.06245E0,-1.5266843E-1,1E0,1E0,-1.4148402E-1,1E0,-1.3593568E-1,9.863115E-1,-1.2291289E-1],"split_indices":[87,101,0,0,55,56,0,90,0,0,0],"split_type":[0,0,0,0,0,0,0,0,0,0,0],"sum_hessian":[1.8333786E2,1.7924716E2,4.090703E0,1.541916E2,2.5055555E1,1.343424E1,1.1621315E1,5.764172E0,7.670068E0,1.7664399E0,3.9977324E0],"tree_param":{"num_deleted":"0","num_feature":"133","num_nodes":"11","size_leaf_vector":"1"}},{"base_weights":[1.1366269E-2,-4.9268454E-1,5.116486E0,-1.526369E-1,-3.9745918E-1,4.5356352E-2,-1.4758791E-1,3.0413795E-1,-1.2291289E-1],"categories":[],"categories_nodes":[],"categories_segments":[],"categories_sizes":[],"default_left":[0,0,0,0,0,0,0,0,0],"id":3,"left_children":[1,3,-1,-1,5,7,-1,-1,-1],"loss_changes":[1.5920187E3,7.385254E-2,0E0,0E0,1.3032756E0,3.1914873E0,0E0,0E0,0E0],"parents":[2147483647,0,0,1,1,4,4,5,5],"right_children":[2,4,-1,-1,6,8,-1,-1,-1],"split_conditions":[1E0,1E0,5.116486E0,-1.526369E-1,1E0,1E0,-1.4758791E-1,3.0413795E-1,-1.2291289E-1],"split_indices":[47,132,0,0,60,128,0,0,0],"split_type":[0,0,0,0,0,0,0,0,0],"sum_hessian":[1.8333786E2,1.7901474E2,4.323129E0,1.4940363E2,2.961111E1,5.2993197E0,2.431179E1,1.3015873E0,3.9977324E0],"tree_param":{"num_deleted":"0","num_feature":"133","num_nodes":"9","size_leaf_vector":"1"}},{"base_weights":[5.9414473E-3,-4.6498218E-1,5.0510454E0,-1.5278372E-1,2.9843438E-1],"categories":[],"categories_nodes":[],"categories_segments":[],"categories_sizes":[],"default_left":[0,0,0,0,0],"id":4,"left_children":[1,3,-1,-1,-1],"loss_changes":[1.4689012E3,1.2164936E1,0E0,0E0,0E0],"parents":[2147483647,0,0,1,1],"right_children":[2,4,-1,-1,-1],"split_conditions":[1E0,1E0,5.0510454E0,-1.5278372E-1,2.9843438E-1],"split_indices":[97,25,0,0,0],"split_type":[0,0,0,0,0],"sum_hessian":[1.8333786E2,1.7929366E2,4.0442176E0,1.7464513E2,4.648526E0],"tree_param":{"num_deleted":"0","num_feature":"133","num_nodes":"5","size_leaf_vector":"1"}},{"base_weights":[3.3065554E-2,-4.8155853E-1,5.1368017E0,-1.5278326E-1,1.5430744E-1],"categories":[],"categories_nodes":[],"categories_segments":[],"categories_sizes":[],"default_left":[0,0,0,0,0],"id":5,"left_children":[1,3,-1,-1,-1],"loss_changes":[1.6294459E3,5.22884E0,0E0,0E0,0E0],"parents":[2147483647,0,0,1,1],"right_children":[2,4,-1,-1,-1],"split_conditions":[1E0,1E0,5.1368017E0,-1.5278326E-1,1.5430744E-1],"split_indices":[67,79,0,0,0],"split_type":[0,0,0,0,0],"sum_hessian":[1.8333786E2,1.7892177E2,4.4160995E0,1.7455215E2,4.3696146E0],"tree_param":{"num_deleted":"0","num_feature":"133","num_nodes":"5","size_leaf_vector":"1"}},{"base_weights":[5.9414473E-3,-4.8159805E-1,5.0846457E0,-1.5278557E-1,1.6824101E-1],"categories":[],"categories_nodes":[],"categories_segments":[],"categories_sizes":[],"default_left":[0,0,0,0,0],"id":6,"left_children":[1,3,-1,-1,-1],"loss_changes":[1.5308527E3,5.4850655E0,0E0,0E0,0E0],"parents":[2147483647,0,0,1,1],"right_children":[2,4,-1,-1,-1],"split_conditions":[1E0,1E0,5.0846457E0,-1.5278557E-1,1.6824101E-1],"split_indices":[68,39,0,0,0],"split_type":[0,0,0,0,0],"sum_hessian":[1.8333786E2,1.7915419E2,4.1836734E0,1.75017E2,4.137188E0],"tree_param":{"num_deleted":"0","num_feature":"133","num_nodes":"5","size_leaf_vector":"1"}},{"base_weights":[5.9414473E-3,-4.6498218E-1,5.0510454E0,-1.5278487E-1,3.1783545E-1],"categories":[],"categories_nodes":[],"categories_segments":[],"categories_sizes":[],"default_left":[0,0,0,0,0],"id":7,"left_children":[1,3,-1,-1,-1],"loss_changes":[1.4689012E3,1.2715427E1,0E0,0E0,0E0],"parents":[2147483647,0,0,1,1],"right_children":[2,4,-1,-1,-1],"split_conditions":[1E0,1E0,5.0510454E0,-1.5278487E-1,3.1783545E-1],"split_indices":[125,6,0,0,0],"split_type":[0,0,0,0,0],"sum_hessian":[1.8333786E2,1.7929366E2,4.0442176E0,1.7487755E2,4.4160995E0],"tree_param":{"num_deleted":"0","num_feature":"133","num_nodes":"5","size_leaf_vector":"1"}},{"base_weights":[5.1662594E-4,-1.5278603E-1,9.729819E0,5.1267314E0,-1.2203035E-1],"categories":[],"categories_nodes":[],"categories_segments":[],"categories_sizes":[],"default_left":[0,0,0,0,0],"id":8,"left_children":[1,-1,3,-1,-1],"loss_changes":[9.1927686E2,0E0,6.9533386E2,0E0,0E0],"parents":[2147483647,0,0,2,2],"right_children":[2,-1,4,-1,-1],"split_conditions":[1E0,-1.5278603E-1,1E0,5.1267314E0,-1.2203035E-1],"split_indices":[91,0,6,0,0],"split_type":[0,0,0,0,0],"sum_hessian":[1.8333786E2,1.7510997E2,8.227891E0,4.3696146E0,3.8582766E0],"tree_param":{"num_deleted":"0","num_feature":"133","num_nodes":"5","size_leaf_vector":"1"}},{"base_weights":[1.679109E-2,-4.8373395E-1,2.9771545E0,-1.5253784E-1,-3.1102464E-1,-2.2600898E-1,5.0510454E0,-5.327493E-2,-1.4235805E-1,-1.4536387E-1,2.198786E-1,-1.2667729E-1,1.0984329E-1],"categories":[],"categories_nodes":[],"categories_segments":[],"categories_sizes":[],"default_left":[0,0,0,0,0,0,0,0,0,0,0,0,0],"id":9,"left_children":[1,3,5,-1,7,9,-1,11,-1,-1,-1,-1,-1],"loss_changes":[2.745802E2,5.188713E-1,1.1935547E3,0E0,9.199667E-1,5.9966063E0,0E0,1.676223E0,0E0,0E0,0E0,0E0,0E0],"parents":[2147483647,0,0,1,1,2,2,4,4,5,5,7,7],"right_children":[2,4,6,-1,8,10,-1,12,-1,-1,-1,-1,-1],"split_conditions":[1E0,1E0,1E0,-1.5253784E-1,1E0,1E0,5.0510454E0,1E0,-1.4235805E-1,-1.4536387E-1,2.198786E-1,-1.2667729E-1,1.0984329E-1],"split_indices":[55,132,72,0,28,123,0,131,0,0,0,0,0],"split_type":[0,0,0,0,0,0,0,0,0,0,0,0,0],"sum_hessian":[1.8333786E2,1.5753854E2,2.579932E1,1.3610884E2,2.1429705E1,2.1755102E1,4.0442176E0,8.832199E0,1.2597506E1,1.7524942E1,4.230159E0,4.695011E0,4.137188E0],"tree_param":{"num_deleted":"0","num_feature":"133","num_nodes":"13","size_leaf_vector":"1"}},{"base_weights":[2.221591E-2,-1.5280387E-1,5.166E0],"categories":[],"categories_nodes":[],"categories_segments":[],"categories_sizes":[],"default_left":[0,0,0],"id":10,"left_children":[1,-1,-1],"loss_changes":[1.6939305E3,0E0,0E0],"parents":[2147483647,0,0],"right_children":[2,-1,-1],"split_conditions":[1E0,-1.5280387E-1,5.166E0],"split_indices":[22,0,0],"split_type":[0,0,0],"sum_hessian":[1.8333786E2,1.787823E2,4.5555553E0],"tree_param":{"num_deleted":"0","num_feature":"133","num_nodes":"3","size_leaf_vector":"1"}},{"base_weights":[-4.66018E-1,-1.527164E-1,-1.2951733E-1,1.007286E0,-1.4494859E-1,1.1088566E0,-1.2010399E-1],"categories":[],"categories_nodes":[],"categories_segments":[],"categories_sizes":[],"default_left":[0,0,0,0,0,0,0],"id":11,"left_children":[1,-1,3,5,-1,-1,-1],"loss_changes":[2.6036224E0,0E0,9.429217E0,2.2683403E1,0E0,0E0,0E0],"parents":[2147483647,0,0,2,2,3,3],"right_children":[2,-1,4,6,-1,-1,-1],"split_conditions":[1E0,-1.527164E-1,1E0,1E0,-1.4494859E-1,1.1088566E0,-1.2010399E-1],"split_indices":[26,0,18,41,0,0,0],"split_type":[0,0,0,0,0,0,0],"sum_hessian":[1.8333786E2,1.620941E2,2.1243763E1,4.602041E0,1.6641724E1,1.0226758E0,3.579365E0],"tree_param":{"num_deleted":"0","num_feature":"133","num_nodes":"7","size_leaf_vector":"1"}},{"base_weights":[-3.7457123E-2,-1.5280628E-1,5.0510454E0],"categories":[],"categories_nodes":[],"categories_segments":[],"categories_sizes":[],"default_left":[0,0,0],"id":12,"left_children":[1,-1,-1],"loss_changes":[1.4764437E3,0E0,0E0],"parents":[2147483647,0,0],"right_children":[2,-1,-1],"split_conditions":[1E0,-1.5280628E-1,5.0510454E0],"split_indices":[76,0,0],"split_type":[0,0,0],"sum_hessian":[1.8333786E2,1.7929366E2,4.0442176E0],"tree_param":{"num_deleted":"0","num_feature":"133","num_nodes":"3","size_leaf_vector":"1"}},{"base_weights":[4.9340017E-2,-1.5280275E-1,5.211538E0],"categories":[],"categories_nodes":[],"categories_segments":[],"categories_sizes":[],"default_left":[0,0,0],"id":13,"left_children":[1,-1,-1],"loss_changes":[1.7928241E3,0E0,0E0],"parents":[2147483647,0,0],"right_children":[2,-1,-1],"split_conditions":[1E0,-1.5280275E-1,5.211538E0],"split_indices":[48,0,0],"split_type":[0,0,0],"sum_hessian":[1.8333786E2,1.7854988E2,4.787982E0],"tree_param":{"num_deleted":"0","num_feature":"133","num_nodes":"3","size_leaf_vector":"1"}},{"base_weights":[1.679109E-2,-4.8712945E-1,5.116486E0,-1.527835E-1,9.627381E-2],"categories":[],"categories_nodes":[],"categories_segments":[],"categories_sizes":[],"default_left":[0,0,0,0,0],"id":14,"left_children":[1,3,-1,-1,-1],"loss_changes":[1.5910107E3,3.3851967E0,0E0,0E0,0E0],"parents":[2147483647,0,0,1,1],"right_children":[2,4,-1,-1,-1],"split_conditions":[1E0,1E0,5.116486E0,-1.527835E-1,9.627381E-2],"split_indices":[54,23,0,0,0],"split_type":[0,0,0,0,0],"sum_hessian":[1.8333786E2,1.7901474E2,4.323129E0,1.7459863E2,4.4160995E0],"tree_param":{"num_deleted":"0","num_feature":"133","num_nodes":"5","size_leaf_vector":"1"}},{"base_weights":[3.8490374E-2,-4.53829E-1,5.0954475E0,-1.5278326E-1,1.38E0,1.4054933E0,-1.1975989E-1],"categories":[],"categories_nodes":[],"categories_segments":[],"categories_sizes":[],"default_left":[0,0,0,0,0,0,0],"id":15,"left_children":[1,3,-1,-1,5,-1,-1],"loss_changes":[1.5456406E3,1.901672E1,0E0,0E0,3.45381E1,0E0,0E0],"parents":[2147483647,0,0,1,1,4,4],"right_children":[2,4,-1,-1,6,-1,-1],"split_conditions":[1E0,1E0,5.0954475E0,-1.5278326E-1,1E0,1.4054933E0,-1.1975989E-1],"split_indices":[105,17,0,0,43,0,0],"split_type":[0,0,0,0,0,0,0],"sum_hessian":[1.8333786E2,1.7910771E2,4.230159E0,1.7455215E2,4.5555553E0,1.0226758E0,3.5328798E0],"tree_param":{"num_deleted":"0","num_feature":"133","num_nodes":"7","size_leaf_vector":"1"}},{"base_weights":[3.3065554E-2,-4.5938122E-1,5.0954475E0,-1.5268676E-1,-9.839706E-2,-1.4318183E-1,5.083323E-1,3.7778714E-1,-1.2262423E-1],"categories":[],"categories_nodes":[],"categories_segments":[],"categories_sizes":[],"default_left":[0,0,0,0,0,0,0,0,0],"id":16,"left_children":[1,3,-1,-1,5,-1,7,-1,-1],"loss_changes":[1.5466254E3,3.173069E0,0E0,0E0,5.5268707E0,0E0,6.933902E0,0E0,0E0],"parents":[2147483647,0,0,1,1,4,4,6,6],"right_children":[2,4,-1,-1,6,-1,8,-1,-1],"split_conditions":[1E0,1E0,5.0954475E0,-1.5268676E-1,1E0,-1.4318183E-1,1E0,3.7778714E-1,-1.2262423E-1],"split_indices":[32,55,0,0,101,0,64,0,0],"split_type":[0,0,0,0,0,0,0,0,0],"sum_hessian":[1.8333786E2,1.7910771E2,4.230159E0,1.5712018E2,2.1987528E1,1.3666666E1,8.320862E0,4.3696146E0,3.9512472E0],"tree_param":{"num_deleted":"0","num_feature":"133","num_nodes":"9","size_leaf_vector":"1"}},{"base_weights":[5.9414473E-3,-4.7051796E-1,5.06245E0,-1.5278372E-1,2.4863388E-1],"categories":[],"categories_nodes":[],"categories_segments":[],"categories_sizes":[],"default_left":[0,0,0,0,0],"id":17,"left_children":[1,3,-1,-1,-1],"loss_changes":[1.4895264E3,9.499722E0,0E0,0E0,0E0],"parents":[2147483647,0,0,1,1],"right_children":[2,4,-1,-1,-1],"split_conditions":[1E0,1E0,5.06245E0,-1.5278372E-1,2.4863388E-1],"split_indices":[120,108,0,0,0],"split_type":[0,0,0,0,0],"sum_hessian":[1.8333786E2,1.7924716E2,4.090703E0,1.7464513E2,4.602041E0],"tree_param":{"num_deleted":"0","num_feature":"133","num_nodes":"5","size_leaf_vector":"1"}},{"base_weights":[5.9414473E-3,-4.5391923E-1,5.0275936E0,-1.527172E-1,6.689149E-2,1.1815857E0,-1.4179E-1,1.4054933E0,-1.24015756E-1],"categories":[],"categories_nodes":[],"categories_segments":[],"categories_sizes":[],"default_left":[0,0,0,0,0,0,0,0,0],"id":18,"left_children":[1,3,-1,-1,5,7,-1,-1,-1],"loss_changes":[1.4277292E3,5.2141304E0,0E0,0E0,1.1475801E1,3.66166E1,0E0,0E0,0E0],"parents":[2147483647,0,0,1,1,4,4,5,5],"right_children":[2,4,-1,-1,6,8,-1,-1,-1],"split_conditions":[1E0,1E0,5.0275936E0,-1.527172E-1,1E0,1E0,-1.4179E-1,1.4054933E0,-1.24015756E-1],"split_indices":[29,31,0,0,72,41,0,0,0],"split_type":[0,0,0,0,0,0,0,0,0],"sum_hessian":[1.8333786E2,1.7938661E2,3.9512472E0,1.6223355E2,1.715306E1,5.2063494E0,1.1946712E1,1.0226758E0,4.1836734E0],"tree_param":{"num_deleted":"0","num_feature":"133","num_nodes":"9","size_leaf_vector":"1"}},{"base_weights":[-1.03330165E-2,-4.4366E-1,4.1824474E0,-1.5266307E-1,2.7522293E-1,4.322914E0,-1.4174724E-1,-1.3832052E-1,1.5428051E0,1.515452E0,-1.1975989E-1],"categories":[],"categories_nodes":[],"categories_segments":[],"categories_sizes":[],"default_left":[0,0,0,0,0,0,0,0,0,0,0],"id":19,"left_children":[1,3,5,-1,7,-1,-1,-1,9,-1,-1],"loss_changes":[3.367689E2,8.015278E0,8.334048E2,0E0,1.4356496E1,0E0,0E0,0E0,4.018839E1,0E0,0E0],"parents":[2147483647,0,0,1,1,2,2,4,4,8,8],"right_children":[2,4,6,-1,8,-1,-1,-1,10,-1,-1],"split_conditions":[1E0,1E0,1E0,-1.5266307E-1,1E0,4.322914E0,-1.4174724E-1,-1.3832052E-1,1E0,1.515452E0,-1.1975989E-1],"split_indices":[14,18,41,0,123,0,0,0,120,0,0],"split_type":[0,0,0,0,0,0,0,0,0,0,0],"sum_hessian":[1.8333786E2,1.6697505E2,1.6362812E1,1.5335487E2,1.3620181E1,4.462585E0,1.1900227E1,9.018141E0,4.602041E0,1.0691609E0,3.5328798E0],"tree_param":{"num_deleted":"0","num_feature":"133","num_nodes":"11","size_leaf_vector":"1"}},{"base_weights":[2.221591E-2,-1.5280387E-1,5.166E0],"categories":[],"categories_nodes":[],"categories_segments":[],"categories_sizes":[],"default_left":[0,0,0],"id":20,"left_children":[1,-1,-1],"loss_changes":[1.6939305E3,0E0,0E0],"parents":[2147483647,0,0],"right_children":[2,-1,-1],"split_conditions":[1E0,-1.5280387E-1,5.166E0],"split_indices":[88,0,0],"split_type":[0,0,0],"sum_hessian":[1.8333786E2,1.787823E2,4.5555553E0],"tree_param":{"num_deleted":"0","num_feature":"133","num_nodes":"3","size_leaf_vector":"1"}},{"base_weights":[-2.660748E-2,-4.8090366E-1,8.692516E0,-1.5262991E-1,-3.1373993E-1,-1.3302372E-2,4.9907165E0,3.0271536E-1,-1.4667767E-1,6.111694E-1,-1.2622952E-1],"categories":[],"categories_nodes":[],"categories_segments":[],"categories_sizes":[],"default_left":[0,0,0,0,0,0,0,0,0,0,0],"id":21,"left_children":[1,3,5,-1,7,-1,-1,9,-1,-1,-1],"loss_changes":[7.343545E2,6.608505E-1,6.3791473E2,0E0,3.1475966E0,0E0,0E0,9.345475E0,0E0,0E0,0E0],"parents":[2147483647,0,0,1,1,2,2,4,4,7,7],"right_children":[2,4,6,-1,8,-1,-1,10,-1,-1,-1],"split_conditions":[1E0,1E0,1E0,-1.5262991E-1,1E0,-1.3302372E-2,4.9907165E0,1E0,-1.4667767E-1,6.111694E-1,-1.2622952E-1],"split_indices":[39,131,72,0,0,0,0,11,0,0,0],"split_type":[0,0,0,0,0,0,0,0,0,0,0],"sum_hessian":[1.8333786E2,1.7515646E2,8.181406E0,1.4838095E2,2.6775509E1,4.3696146E0,3.8117914E0,5.764172E0,2.1011337E1,1.1621315E0,4.602041E0],"tree_param":{"num_deleted":"0","num_feature":"133","num_nodes":"11","size_leaf_vector":"1"}},{"base_weights":[5.9414473E-3,-4.722433E-1,3.4952033E0,-1.5263596E-1,-3.813142E-2,5.770112E0,-1.367515E-1,-1.3765207E-1,2.2663872E-1,8.591789E0,-1.2528785E-1,4.68E0,-1.24538034E-1],"categories":[],"categories_nodes":[],"categories_segments":[],"categories_sizes":[],"default_left":[0,0,0,0,0,0,0,0,0,0,0,0,0],"id":22,"left_children":[1,3,5,-1,7,9,-1,-1,-1,11,-1,-1,-1],"loss_changes":[3.092205E2,2.5664215E0,2.0339859E2,0E0,4.9330215E0,2.5236072E2,0E0,0E0,0E0,6.271076E2,0E0,0E0,0E0],"parents":[2147483647,0,0,1,1,2,2,4,4,5,5,9,9],"right_children":[2,4,6,-1,8,10,-1,-1,-1,12,-1,-1,-1],"split_conditions":[1E0,1E0,1E0,-1.5263596E-1,1E0,1E0,-1.367515E-1,-1.3765207E-1,2.2663872E-1,1E0,-1.2528785E-1,4.68E0,-1.24538034E-1],"split_indices":[28,56,45,0,41,55,0,0,0,65,0,0,0],"split_type":[0,0,0,0,0,0,0,0,0,0,0,0,0],"sum_hessian":[1.8333786E2,1.6200113E2,2.1336735E1,1.4926418E2,1.2736961E1,1.32483E1,8.088435E0,8.599773E0,4.137188E0,8.832199E0,4.4160995E0,4.5555553E0,4.2766438E0],"tree_param":{"num_deleted":"0","num_feature":"133","num_nodes":"13","size_leaf_vector":"1"}},{"base_weights":[2.7640732E-2,-1.5280363E-1,5.17541E0],"categories":[],"categories_nodes":[],"categories_segments":[],"categories_sizes":[],"default_left":[0,0,0],"id":23,"left_children":[1,-1,-1],"loss_changes":[1.7137097E3,0E0,0E0],"parents":[2147483647,0,0],"right_children":[2,-1,-1],"split_conditions":[1E0,-1.5280363E-1,5.17541E0],"split_indices":[21,0,0],"split_type":[0,0,0],"sum_hessian":[1.8333786E2,1.7873582E2,4.602041E0],"tree_param":{"num_deleted":"0","num_feature":"133","num_nodes":"3","size_leaf_vector":"1"}},{"base_weights":[1.1366269E-2,-4.8159015E-1,5.0954475E0,-1.5276334E-1,7.0469774E-2,-1.24792345E-1,1.6824101E-1],"categories":[],"categories_nodes":[],"categories_segments":[],"categories_sizes":[],"default_left":[0,0,0,0,0,0,0],"id":24,"left_children":[1,3,-1,-1,5,-1,-1],"loss_changes":[1.550567E3,2.7822456E0,0E0,0E0,2.4897542E0,0E0,0E0],"parents":[2147483647,0,0,1,1,4,4],"right_children":[2,4,-1,-1,6,-1,-1],"split_conditions":[1E0,1E0,5.0954475E0,-1.5276334E-1,1E0,-1.24792345E-1,1.6824101E-1],"split_indices":[58,34,0,0,61,0,0],"split_type":[0,0,0,0,0,0,0],"sum_hessian":[1.8333786E2,1.7910771E2,4.230159E0,1.7064738E2,8.460318E0,4.323129E0,4.137188E0],"tree_param":{"num_deleted":"0","num_feature":"133","num_nodes":"7","size_leaf_vector":"1"}},{"base_weights":[5.1662594E-4,-1.5278396E-1,9.285613E0,5.1267314E0,-1.24538034E-1],"categories":[],"categories_nodes":[],"categories_segments":[],"categories_sizes":[],"default_left":[0,0,0,0,0],"id":25,"left_children":[1,-1,3,-1,-1],"loss_changes":[8.77294E2,0E0,7.3731244E2,0E0,0E0],"parents":[2147483647,0,0,2,2],"right_children":[2,-1,4,-1,-1],"split_conditions":[1E0,-1.5278396E-1,1E0,5.1267314E0,-1.24538034E-1],"split_indices":[1,0,15,0,0],"split_type":[0,0,0,0,0],"sum_hessian":[1.8333786E2,1.746916E2,8.646258E0,4.3696146E0,4.2766438E0],"tree_param":{"num_deleted":"0","num_feature":"133","num_nodes":"5","size_leaf_vector":"1"}},{"base_weights":[5.4764837E-2,-1.5280253E-1,5.22021E0],"categories":[],"categories_nodes":[],"categories_segments":[],"categories_sizes":[],"default_left":[0,0,0],"id":26,"left_children":[1,-1,-1],"loss_changes":[1.8126007E3,0E0,0E0],"parents":[2147483647,0,0],"right_children":[2,-1,-1],"split_conditions":[1E0,-1.5280253E-1,5.22021E0],"split_indices":[80,0,0],"split_type":[0,0,0],"sum_hessian":[1.8333786E2,1.785034E2,4.834467E0],"tree_param":{"num_deleted":"0","num_feature":"133","num_nodes":"3","size_leaf_vector":"1"}},{"base_weights":[-1.03330165E-2,-1.5280518E-1,5.106059E0],"categories":[],"categories_nodes":[],"categories_segments":[],"categories_sizes":[],"default_left":[0,0,0],"id":27,"left_children":[1,-1,-1],"loss_changes":[1.5752709E3,0E0,0E0],"parents":[2147483647,0,0],"right_children":[2,-1,-1],"split_conditions":[1E0,-1.5280518E-1,5.106059E0],"split_indices":[15,0,0],"split_type":[0,0,0],"sum_hessian":[1.8333786E2,1.7906122E2,4.2766438E0],"tree_param":{"num_deleted":"0","num_feature":"133","num_nodes":"3","size_leaf_vector":"1"}},{"base_weights":[5.9414473E-3,-4.8159805E-1,5.0846457E0,-1.5266871E-1,-2.995013E-1,-1.4517221E-1,1.1351349E-1,1.711804E-1,-1.21095635E-1],"categories":[],"categories_nodes":[],"categories_segments":[],"categories_sizes":[],"default_left":[0,0,0,0,0,0,0,0,0],"id":28,"left_children":[1,3,-1,-1,5,-1,7,-1,-1],"loss_changes":[1.5308527E3,7.430916E-1,0E0,0E0,2.0287635E0,0E0,2.3128085E0,0E0,0E0],"parents":[2147483647,0,0,1,1,4,4,6,6],"right_children":[2,4,-1,-1,6,-1,8,-1,-1],"split_conditions":[1E0,1E0,5.0846457E0,-1.5266871E-1,1E0,-1.4517221E-1,1E0,1.711804E-1,-1.21095635E-1],"split_indices":[90,101,0,0,45,0,6,0,0],"split_type":[0,0,0,0,0,0,0,0,0],"sum_hessian":[1.8333786E2,1.7915419E2,4.1836734E0,1.542381E2,2.49161E1,1.7106575E1,7.8095236E0,4.090703E0,3.7188208E0],"tree_param":{"num_deleted":"0","num_feature":"133","num_nodes":"9","size_leaf_vector":"1"}},{"base_weights":[5.9414473E-3,-4.851683E-1,4.4652195E0,-1.526315E-1,-2.661515E-1,-1.9756505E-1,5.0510454E0,-1.4269537E-1,1.0063897E-1,-1.3839136E-1,1.0287924E-1],"categories":[],"categories_nodes":[],"categories_segments":[],"categories_sizes":[],"default_left":[0,0,0,0,0,0,0,0,0,0,0],"id":29,"left_children":[1,3,5,-1,7,9,-1,-1,-1,-1,-1],"loss_changes":[4.058654E2,7.276573E-1,1.0639133E3,0E0,2.4709768E0,2.2025447E0,0E0,0E0,0E0,0E0,0E0],"parents":[2147483647,0,0,1,1,2,2,4,4,5,5],"right_children":[2,4,6,-1,8,10,-1,-1,-1,-1,-1],"split_conditions":[1E0,1E0,1E0,-1.526315E-1,1E0,1E0,5.0510454E0,-1.4269537E-1,1.0063897E-1,-1.3839136E-1,1.0287924E-1],"split_indices":[128,28,0,0,55,45,0,0,0,0,0],"split_type":[0,0,0,0,0,0,0,0,0,0,0],"sum_hessian":[1.8333786E2,1.6595238E2,1.7385487E1,1.4861337E2,1.7339003E1,1.33412695E1,4.0442176E0,1.3015873E1,4.323129E0,9.064626E0,4.2766438E0],"tree_param":{"num_deleted":"0","num_feature":"133","num_nodes":"11","size_leaf_vector":"1"}},{"base_weights":[3.8490374E-2,-1.5273792E-1,4.995202E0,-4.756514E-2,5.1368017E0,-1.3757418E-1,2.0398507E-1],"categories":[],"categories_nodes":[],"categories_segments":[],"categories_sizes":[],"default_left":[0,0,0,0,0,0,0],"id":30,"left_children":[1,-1,3,5,-1,-1,-1],"loss_changes":[5.0290588E2,0E0,1.1280402E3,4.5028386E0,0E0,0E0,0E0],"parents":[2147483647,0,0,2,2,3,3],"right_children":[2,-1,4,6,-1,-1,-1],"split_conditions":[1E0,-1.5273792E-1,1E0,1E0,5.1368017E0,-1.3757418E-1,2.0398507E-1],"split_indices":[69,0,110,31,0,0,0],"split_type":[0,0,0,0,0,0,0],"sum_hessian":[1.8333786E2,1.659059E2,1.7431973E1,1.3015873E1,4.4160995E0,8.5532875E0,4.462585E0],"tree_param":{"num_deleted":"0","num_feature":"133","num_nodes":"7","size_leaf_vector":"1"}},{"base_weights":[3.8490374E-2,-4.7600055E-1,5.1368017E0,-1.5278466E-1,2.3011135E-1],"categories":[],"categories_nodes":[],"categories_segments":[],"categories_sizes":[],"default_left":[0,0,0,0,0],"id":31,"left_children":[1,3,-1,-1,-1],"loss_changes":[1.6284167E3,7.834053E0,0E0,0E0,0E0],"parents":[2147483647,0,0,1,1],"right_children":[2,4,-1,-1,-1],"split_conditions":[1E0,1E0,5.1368017E0,-1.5278466E-1,2.3011135E-1],"split_indices":[122,49,0,0,0],"split_type":[0,0,0,0,0],"sum_hessian":[1.8333786E2,1.7892177E2,4.4160995E0,1.7483107E2,4.090703E0],"tree_param":{"num_deleted":"0","num_feature":"133","num_nodes":"5","size_leaf_vector":"1"}},{"base_weights":[5.9414473E-3,-4.8159805E-1,5.0846457E0,-1.5278396E-1,1.49066E-1],"categories":[],"categories_nodes":[],"categories_segments":[],"categories_sizes":[],"default_left":[0,0,0,0,0],"id":32,"left_children":[1,3,-1,-1,-1],"loss_changes":[1.5308527E3,5.1327477E0,0E0,0E0,0E0],"parents":[2147483647,0,0,1,1],"right_children":[2,4,-1,-1,-1],"split_conditions":[1E0,1E0,5.0846457E0,-1.5278396E-1,1.49066E-1],"split_indices":[46,73,0,0,0],"split_type":[0,0,0,0,0],"sum_hessian":[1.8333786E2,1.7915419E2,4.1836734E0,1.746916E2,4.462585E0],"tree_param":{"num_deleted":"0","num_feature":"133","num_nodes":"5","size_leaf_vector":"1"}},{"base_weights":[5.1662594E-4,-4.8160595E-1,5.0736485E0,-1.5256959E-1,-3.747137E-1,-2.233379E-1,-1.4667767E-1,-1.4512841E-1,6.455343E-1],"categories":[],"categories_nodes":[],"categories_segments":[],"categories_sizes":[],"default_left":[0,0,0,0,0,0,0,0,0],"id":33,"left_children":[1,3,-1,-1,5,7,-1,-1,-1],"loss_changes":[1.5111411E3,3.2872772E-1,0E0,0E0,5.839877E-1,1.2844337E1,0E0,0E0,0E0],"parents":[2147483647,0,0,1,1,4,4,5,5],"right_children":[2,4,-1,-1,6,8,-1,-1,-1],"split_conditions":[1E0,1E0,5.0736485E0,-1.5256959E-1,1E0,1E0,-1.4667767E-1,-1.4512841E-1,6.455343E-1],"split_indices":[4,44,0,0,72,123,0,0,0],"split_type":[0,0,0,0,0,0,0,0,0],"sum_hessian":[1.8333786E2,1.7920068E2,4.137188E0,1.4010657E2,3.9094105E1,1.8082766E1,2.1011337E1,1.7013605E1,1.0691609E0],"tree_param":{"num_deleted":"0","num_feature":"133","num_nodes":"9","size_leaf_vector":"1"}},{"base_weights":[-1.03330165E-2,-4.8716176E-1,5.06245E0,-1.5278372E-1,8.797814E-2],"categories":[],"categories_nodes":[],"categories_segments":[],"categories_sizes":[],"default_left":[0,0,0,0,0],"id":34,"left_children":[1,3,-1,-1,-1],"loss_changes":[1.4923862E3,3.260563E0,0E0,0E0,0E0],"parents":[2147483647,0,0,1,1],"right_children":[2,4,-1,-1,-1],"split_conditions":[1E0,1E0,5.06245E0,-1.5278372E-1,8.797814E-2],"split_indices":[51,49,0,0,0],"split_type":[0,0,0,0,0],"sum_hessian":[1.8333786E2,1.7924716E2,4.090703E0,1.7464513E2,4.602041E0],"tree_param":{"num_deleted":"0","num_feature":"133","num_nodes":"5","size_leaf_vector":"1"}},{"base_weights":[-4.908195E-3,-1.5280496E-1,5.116486E0],"categories":[],"categories_nodes":[],"categories_segments":[],"categories_sizes":[],"default_left":[0,0,0],"id":35,"left_children":[1,-1,-1],"loss_changes":[1.5950442E3,0E0,0E0],"parents":[2147483647,0,0],"right_children":[2,-1,-1],"split_conditions":[1E0,-1.5280496E-1,5.116486E0],"split_indices":[95,0,0],"split_type":[0,0,0],"sum_hessian":[1.8333786E2,1.7901474E2,4.323129E0],"tree_param":{"num_deleted":"0","num_feature":"133","num_nodes":"3","size_leaf_vector":"1"}},{"base_weights":[-1.03330165E-2,-4.9270466E-1,5.0736485E0,-1.5269302E-1,-3.529684E-1,-1.4521556E-1,6.322053E-2],"categories":[],"categories_nodes":[],"categories_segments":[],"categories_sizes":[],"default_left":[0,0,0,0,0,0,0],"id":36,"left_children":[1,3,-1,-1,5,-1,-1],"loss_changes":[1.5130701E3,2.3008728E-1,0E0,0E0,1.7319074E0,0E0,0E0],"parents":[2147483647,0,0,1,1,4,4],"right_children":[2,4,-1,-1,6,-1,-1],"split_conditions":[1E0,1E0,5.0736485E0,-1.5269302E-1,1E0,-1.4521556E-1,6.322053E-2],"split_indices":[50,56,0,0,101,0,0],"split_type":[0,0,0,0,0,0,0],"sum_hessian":[1.8333786E2,1.7920068E2,4.137188E0,1.5814285E2,2.1057823E1,1.7199547E1,3.8582766E0],"tree_param":{"num_deleted":"0","num_feature":"133","num_nodes":"7","size_leaf_vector":"1"}},{"base_weights":[2.7640732E-2,-1.5280363E-1,5.17541E0],"categories":[],"categories_nodes":[],"categories_segments":[],"categories_sizes":[],"default_left":[0,0,0],"id":37,"left_children":[1,-1,-1],"loss_changes":[1.7137097E3,0E0,0E0],"parents":[2147483647,0,0],"right_children":[2,-1,-1],"split_conditions":[1E0,-1.5280363E-1,5.17541E0],"split_indices":[11,0,0],"split_type":[0,0,0],"sum_hessian":[1.8333786E2,1.7873582E2,4.602041E0],"tree_param":{"num_deleted":"0","num_feature":"133","num_nodes":"3","size_leaf_vector":"1"}},{"base_weights":[1.1366269E-2,-4.8713592E-1,5.106059E0,-1.5278304E-1,8.9999996E-2],"categories":[],"categories_nodes":[],"categories_segments":[],"categories_sizes":[],"default_left":[0,0,0,0,0],"id":38,"left_children":[1,3,-1,-1,-1],"loss_changes":[1.5712808E3,3.2908592E0,0E0,0E0,0E0],"parents":[2147483647,0,0,1,1],"right_children":[2,4,-1,-1,-1],"split_conditions":[1E0,1E0,5.106059E0,-1.5278304E-1,8.9999996E-2],"split_indices":[7,23,0,0,0],"split_type":[0,0,0,0,0],"sum_hessian":[1.8333786E2,1.7906122E2,4.2766438E0,1.7450566E2,4.5555553E0],"tree_param":{"num_deleted":"0","num_feature":"133","num_nodes":"5","size_leaf_vector":"1"}},{"base_weights":[1.679109E-2,-4.8158225E-1,5.106059E0,-1.527835E-1,1.49066E-1],"categories":[],"categories_nodes":[],"categories_segments":[],"categories_sizes":[],"default_left":[0,0,0,0,0],"id":39,"left_children":[1,3,-1,-1,-1],"loss_changes":[1.5702838E3,5.1326637E0,0E0,0E0,0E0],"parents":[2147483647,0,0,1,1],"right_children":[2,4,-1,-1,-1],"split_conditions":[1E0,1E0,5.106059E0,-1.527835E-1,1.49066E-1],"split_indices":[24,17,0,0,0],"split_type":[0,0,0,0,0],"sum_hessian":[1.8333786E2,1.7906122E2,4.2766438E0,1.7459863E2,4.462585E0],"tree_param":{"num_deleted":"0","num_feature":"133","num_nodes":"5","size_leaf_vector":"1"}},{"base_weights":[2.7640732E-2,-4.926694E-1,5.1467E0,-1.527814E-1,3.1355757E-2],"categories":[],"categories_nodes":[],"categories_segments":[],"categories_sizes":[],"default_left":[0,0,0,0,0],"id":40,"left_children":[1,3,-1,-1,-1],"loss_changes":[1.65125E3,1.8365936E0,0E0,0E0,0E0],"parents":[2147483647,0,0,1,1],"right_children":[2,4,-1,-1,-1],"split_conditions":[1E0,1E0,5.1467E0,-1.527814E-1,3.1355757E-2],"split_indices":[85,75,0,0,0],"split_type":[0,0,0,0,0],"sum_hessian":[1.8333786E2,1.7887527E2,4.462585E0,1.7418027E2,4.695011E0],"tree_param":{"num_deleted":"0","num_feature":"133","num_nodes":"5","size_leaf_vector":"1"}},{"base_weights":[5.1662594E-4,-1.5276116E-1,6.186596E0,5.1267314E0,-1.3788126E-1],"categories":[],"categories_nodes":[],"categories_segments":[],"categories_sizes":[],"default_left":[0,0,0,0,0],"id":41,"left_children":[1,-1,3,-1,-1],"loss_changes":[5.8439905E2,0E0,1.0301846E3,0E0,0E0],"parents":[2147483647,0,0,2,2],"right_children":[2,-1,4,-1,-1],"split_conditions":[1E0,-1.5276116E-1,1E0,5.1267314E0,-1.3788126E-1],"split_indices":[65,0,64,0,0],"split_type":[0,0,0,0,0],"sum_hessian":[1.8333786E2,1.7022902E2,1.3108844E1,4.3696146E0,8.739229E0],"tree_param":{"num_deleted":"0","num_feature":"133","num_nodes":"5","size_leaf_vector":"1"}},{"base_weights":[-4.6175844E-3,-4.1636625E-1,2.179527E-1,-1.4765212E-1,1.3668501E-1],"categories":[],"categories_nodes":[],"categories_segments":[],"categories_sizes":[],"default_left":[0,0,0,0,0],"id":42,"left_children":[1,3,-1,-1,-1],"loss_changes":[2.1093864E1,3.186862E0,0E0,0E0,0E0],"parents":[2147483647,0,0,1,1],"right_children":[2,4,-1,-1,-1],"split_conditions":[1E0,1E0,2.179527E-1,-1.4765212E-1,1.3668501E-1],"split_indices":[104,121,0,0,0],"split_type":[0,0,0,0,0],"sum_hessian":[6.806505E1,4.3818367E1,2.4246683E1,4.071436E1,3.104008E0],"tree_param":{"num_deleted":"0","num_feature":"133","num_nodes":"5","size_leaf_vector":"1"}},{"base_weights":[2.604154E-2,-4.2961618E-1,2.549326E-1,-1.4774626E-1,1.3330832E-1],"categories":[],"categories_nodes":[],"categories_segments":[],"categories_sizes":[],"default_left":[0,0,0,0,0],"id":43,"left_children":[1,3,-1,-1,-1],"loss_changes":[2.592553E1,2.6645737E0,0E0,0E0,0E0],"parents":[2147483647,0,0,1,1],"right_children":[2,4,-1,-1,-1],"split_conditions":[1E0,1E0,2.549326E-1,-1.4774626E-1,1.3330832E-1],"split_indices":[70,38,0,0,0],"split_type":[0,0,0,0,0],"sum_hessian":[6.709934E1,4.3509834E1,2.3589506E1,4.0997124E1,2.5127137E0],"tree_param":{"num_deleted":"0","num_feature":"133","num_nodes":"5","size_leaf_vector":"1"}},{"base_weights":[6.585499E-2,-4.1971985E-1,9.195482E-1,-1.4781657E-1,1.3733822E-1,1.2039195E0,1.7585602E-1],"categories":[],"categories_nodes":[],"categories_segments":[],"categories_sizes":[],"default_left":[0,0,0,0,0,0,0],"id":44,"left_children":[1,3,5,-1,-1,-1,-1],"loss_changes":[2.925211E1,3.1130548E0,2.4007584E1,0E0,0E0,0E0,0E0],"parents":[2147483647,0,0,1,1,2,2],"right_children":[2,4,6,-1,-1,-1,-1],"split_conditions":[1E0,1E0,1E0,-1.4781657E-1,1.3733822E-1,1.2039195E0,1.7585602E-1],"split_indices":[96,8,87,0,0,0,0],"split_type":[0,0,0,0,0,0,0],"sum_hessian":[6.8635544E1,4.4074577E1,2.4560968E1,4.1094364E1,2.9802134E0,1.3154767E0,2.3245491E1],"tree_param":{"num_deleted":"0","num_feature":"133","num_nodes":"7","size_leaf_vector":"1"}},{"base_weights":[-2.0913512E-2,-4.627327E-1,2.0574892E-1,-1.4766455E-1,9.7242735E-2],"categories":[],"categories_nodes":[],"categories_segments":[],"categories_sizes":[],"default_left":[0,0,0,0,0],"id":45,"left_children":[1,3,-1,-1,-1],"loss_changes":[2.1776197E1,1.154417E0,0E0,0E0,0E0],"parents":[2147483647,0,0,1,1],"right_children":[2,4,-1,-1,-1],"split_conditions":[1E0,1E0,2.0574892E-1,-1.4766455E-1,9.7242735E-2],"split_indices":[42,33,0,0,0],"split_type":[0,0,0,0,0],"sum_hessian":[6.772267E1,4.1884136E1,2.583853E1,4.0732452E1,1.1516848E0],"tree_param":{"num_deleted":"0","num_feature":"133","num_nodes":"5","size_leaf_vector":"1"}},{"base_weights":[4.682689E-2,-4.2481968E-1,2.6479208E-1,-1.4762518E-1,1.3414147E-1],"categories":[],"categories_nodes":[],"categories_segments":[],"categories_sizes":[],"default_left":[0,0,0,0,0],"id":46,"left_children":[1,3,-1,-1,-1],"loss_changes":[2.7317865E1,2.8222122E0,0E0,0E0,0E0],"parents":[2147483647,0,0,1,1],"right_children":[2,4,-1,-1,-1],"split_conditions":[1E0,1E0,2.6479208E-1,-1.4762518E-1,1.3414147E-1],"split_indices":[124,97,0,0,0],"split_type":[0,0,0,0,0],"sum_hessian":[6.734683E1,4.3366817E1,2.3980015E1,4.0665474E1,2.701343E0],"tree_param":{"num_deleted":"0","num_feature":"133","num_nodes":"5","size_leaf_vector":"1"}},{"base_weights":[8.600427E-3,-4.6210665E-1,7.0723504E-1,-1.4755598E-1,9.627365E-2,5.5844784E-1,1.7427774E-1],"categories":[],"categories_nodes":[],"categories_segments":[],"categories_sizes":[],"default_left":[0,0,0,0,0,0,0],"id":47,"left_children":[1,3,5,-1,-1,-1,-1],"loss_changes":[2.3016375E1,1.1320868E0,3.0254564E0,0E0,0E0,0E0,0E0],"parents":[2147483647,0,0,1,1,2,2],"right_children":[2,4,6,-1,-1,-1,-1],"split_conditions":[1E0,1E0,1E0,-1.4755598E-1,9.627365E-2,5.5844784E-1,1.7427774E-1],"split_indices":[106,67,67,0,0,0,0],"split_type":[0,0,0,0,0,0,0],"sum_hessian":[6.79962E1,4.082727E1,2.7168934E1,3.9691265E1,1.1360055E0,1.3248075E0,2.5844126E1],"tree_param":{"num_deleted":"0","num_feature":"133","num_nodes":"7","size_leaf_vector":"1"}},{"base_weights":[3.6379937E-2,-4.683409E-1,7.3587394E-1,-1.472929E-1,-1.8162698E-1,5.1068604E-1,1.8747808E-1,5.8481358E-2,-1.0765923E-1],"categories":[],"categories_nodes":[],"categories_segments":[],"categories_sizes":[],"default_left":[0,0,0,0,0,0,0,0,0],"id":48,"left_children":[1,3,5,-1,7,-1,-1,-1,-1],"loss_changes":[2.5149555E1,1.7965412E-1,2.1352825E0,0E0,3.781712E-1,0E0,0E0,0E0,0E0],"parents":[2147483647,0,0,1,1,2,2,4,4],"right_children":[2,4,6,-1,8,-1,-1,-1,-1],"split_conditions":[1E0,1E0,1E0,-1.472929E-1,1E0,5.1068604E-1,1.8747808E-1,5.8481358E-2,-1.0765923E-1],"split_indices":[39,14,68,0,110,0,0,0,0],"split_type":[0,0,0,0,0,0,0,0,0],"sum_hessian":[6.925909E1,4.042258E1,2.883651E1,3.680452E1,3.6180587E0,1.4925237E0,2.7343987E1,1.1259503E0,2.4921083E0],"tree_param":{"num_deleted":"0","num_feature":"133","num_nodes":"9","size_leaf_vector":"1"}},{"base_weights":[4.945773E-2,-4.5997894E-1,8.187925E-1,-1.475443E-1,1.0074264E-1,8.541772E-1,1.773405E-1],"categories":[],"categories_nodes":[],"categories_segments":[],"categories_sizes":[],"default_left":[0,0,0,0,0,0,0],"id":49,"left_children":[1,3,5,-1,-1,-1,-1],"loss_changes":[2.7291027E1,1.2280436E0,1.1116564E1,0E0,0E0,0E0,0E0],"parents":[2147483647,0,0,1,1,2,2],"right_children":[2,4,6,-1,-1,-1,-1],"split_conditions":[1E0,1E0,1E0,-1.475443E-1,1.0074264E-1,8.541772E-1,1.773405E-1],"split_indices":[73,125,125,0,0,0,0],"split_type":[0,0,0,0,0,0,0],"sum_hessian":[6.767191E1,4.095471E1,2.6717203E1,3.9746628E1,1.2080795E0,1.5348347E0,2.5182367E1],"tree_param":{"num_deleted":"0","num_feature":"133","num_nodes":"7","size_leaf_vector":"1"}},{"base_weights":[-5.9343826E-2,-1.475831E-1,5.555586E-1,3.5076767E-2,1.7489414E-1],"categories":[],"categories_nodes":[],"categories_segments":[],"categories_sizes":[],"default_left":[0,0,0,0,0],"id":50,"left_children":[1,-1,3,-1,-1],"loss_changes":[1.854999E1,0E0,2.7878666E-1,0E0,0E0],"parents":[2147483647,0,0,2,2],"right_children":[2,-1,4,-1,-1],"split_conditions":[1E0,-1.475831E-1,1E0,3.5076767E-2,1.7489414E-1],"split_indices":[91,0,55,0,0],"split_type":[0,0,0,0,0],"sum_hessian":[6.770763E1,3.9862965E1,2.7844662E1,1.9480352E0,2.5896627E1],"tree_param":{"num_deleted":"0","num_feature":"133","num_nodes":"5","size_leaf_vector":"1"}},{"base_weights":[7.242E-2,-4.382989E-1,6.8148446E-1,-1.4686477E-1,-3.727806E-2,8.919213E-1,-1.2523225E-1,-1.0699544E-1,1.0397654E-1,4.5600277E-1,2.4093904E-1],"categories":[],"categories_nodes":[],"categories_segments":[],"categories_sizes":[],"default_left":[0,0,0,0,0,0,0,0,0,0,0],"id":51,"left_children":[1,3,5,-1,7,9,-1,-1,-1,-1,-1],"loss_changes":[2.1719358E1,7.640619E-1,7.725999E0,0E0,7.85115E-1,2.8539276E-1,0E0,0E0,0E0,0E0,0E0],"parents":[2147483647,0,0,1,1,2,2,4,4,5,5],"right_children":[2,4,6,-1,8,10,-1,-1,-1,-1,-1],"split_conditions":[1E0,1E0,1E0,-1.4686477E-1,1E0,1E0,-1.2523225E-1,-1.0699544E-1,1.0397654E-1,4.5600277E-1,2.4093904E-1],"split_indices":[131,60,41,0,132,55,0,0,0,0,0],"split_type":[0,0,0,0,0,0,0,0,0,0,0],"sum_hessian":[6.786328E1,3.70642E1,3.0799078E1,3.2668434E1,4.395769E0,2.6007236E1,4.791842E0,2.438149E0,1.9576201E0,1.2247475E0,2.478249E1],"tree_param":{"num_deleted":"0","num_feature":"133","num_nodes":"11","size_leaf_vector":"1"}},{"base_weights":[-5.6153804E-2,-1.4763758E-1,1.7423475E-1],"categories":[],"categories_nodes":[],"categories_segments":[],"categories_sizes":[],"default_left":[0,0,0],"id":52,"left_children":[1,-1,-1],"loss_changes":[1.9487413E1,0E0,0E0],"parents":[2147483647,0,0],"right_children":[2,-1,-1],"split_conditions":[1E0,-1.4763758E-1,1.7423475E-1],"split_indices":[22,0,0],"split_type":[0,0,0],"sum_hessian":[6.814858E1,4.059167E1,2.7556911E1],"tree_param":{"num_deleted":"0","num_feature":"133","num_nodes":"3","size_leaf_vector":"1"}},{"base_weights":[-3.0962917E-1,-1.4768237E-1,1.0341544E0],"categories":[],"categories_nodes":[],"categories_segments":[],"categories_sizes":[],"default_left":[0,0,0],"id":53,"left_children":[1,-1,-1],"loss_changes":[3.1538689E1,0E0,0E0],"parents":[2147483647,0,0],"right_children":[2,-1,-1],"split_conditions":[1E0,-1.4768237E-1,1.0341544E0],"split_indices":[118,0,0],"split_type":[0,0,0],"sum_hessian":[4.249066E1,4.1349342E1,1.141322E0],"tree_param":{"num_deleted":"0","num_feature":"133","num_nodes":"3","size_leaf_vector":"1"}},{"base_weights":[-5.9060134E-2,-1.4763807E-1,1.7828295E-1],"categories":[],"categories_nodes":[],"categories_segments":[],"categories_sizes":[],"default_left":[0,0,0],"id":54,"left_children":[1,-1,-1],"loss_changes":[1.9613861E1,0E0,0E0],"parents":[2147483647,0,0],"right_children":[2,-1,-1],"split_conditions":[1E0,-1.4763807E-1,1.7828295E-1],"split_indices":[76,0,0],"split_type":[0,0,0],"sum_hessian":[6.7288376E1,4.0613983E1,2.667439E1],"tree_param":{"num_deleted":"0","num_feature":"133","num_nodes":"3","size_leaf_vector":"1"}},{"base_weights":[-5.4798376E-2,-1.4763723E-1,1.7274542E-1],"categories":[],"categories_nodes":[],"categories_segments":[],"categories_sizes":[],"default_left":[0,0,0],"id":55,"left_children":[1,-1,-1],"loss_changes":[1.9451477E1,0E0,0E0],"parents":[2147483647,0,0],"right_children":[2,-1,-1],"split_conditions":[1E0,-1.4763723E-1,1.7274542E-1],"split_indices":[48,0,0],"split_type":[0,0,0],"sum_hessian":[6.8503845E1,4.0580982E1,2.7922861E1],"tree_param":{"num_deleted":"0","num_feature":"133","num_nodes":"3","size_leaf_vector":"1"}},{"base_weights":[-4.9024075E-3,-4.5533192E-1,2.1709122E-1,-1.4764377E-1,1.0749393E-1],"categories":[],"categories_nodes":[],"categories_segments":[],"categories_sizes":[],"default_left":[0,0,0,0,0],"id":56,"left_children":[1,3,-1,-1,-1],"loss_changes":[2.2902721E1,1.4679728E0,0E0,0E0,0E0],"parents":[2147483647,0,0,1,1],"right_children":[2,4,-1,-1,-1],"split_conditions":[1E0,1E0,2.1709122E-1,-1.4764377E-1,1.0749393E-1],"split_indices":[12,54,0,0,0],"split_type":[0,0,0,0,0],"sum_hessian":[6.778814E1,4.2121166E1,2.5666971E1,4.0675888E1,1.4452765E0],"tree_param":{"num_deleted":"0","num_feature":"133","num_nodes":"5","size_leaf_vector":"1"}},{"base_weights":[7.272111E-2,-4.2374063E-1,8.283648E-1,-1.4754488E-1,1.3326637E-1,2.2121305E0,1.7630816E-1,-7.6693065E-2,9.61766E-1],"categories":[],"categories_nodes":[],"categories_segments":[],"categories_sizes":[],"default_left":[0,0,0,0,0,0,0,0,0],"id":57,"left_children":[1,3,5,-1,-1,7,-1,-1,-1],"loss_changes":[2.681638E1,2.7731767E0,8.128155E0,0E0,0E0,1.0218401E1,0E0,0E0,0E0],"parents":[2147483647,0,0,1,1,2,2,5,5],"right_children":[2,4,6,-1,-1,8,-1,-1,-1],"split_conditions":[1E0,1E0,1E0,-1.4754488E-1,1.3326637E-1,1E0,1.7630816E-1,-7.6693065E-2,9.61766E-1],"split_indices":[108,105,105,0,0,17,0,0,0],"split_type":[0,0,0,0,0,0,0,0,0],"sum_hessian":[6.954644E1,4.2236244E1,2.7310194E1,3.956636E1,2.6698847E0,2.8325589E0,2.4477634E1,1.0264205E0,1.8061385E0],"tree_param":{"num_deleted":"0","num_feature":"133","num_nodes":"9","size_leaf_vector":"1"}},{"base_weights":[6.042518E-2,-4.0761173E-1,9.1516787E-1,-1.4770491E-1,1.4185119E-1,1.3902272E-1,9.6080035E-1,1.3444017E-1,3.0318993E-1],"categories":[],"categories_nodes":[],"categories_segments":[],"categories_sizes":[],"default_left":[0,0,0,0,0,0,0,0,0],"id":58,"left_children":[1,3,5,-1,-1,-1,7,-1,-1],"loss_changes":[2.809823E1,3.6255174E0,6.662369E-2,0E0,0E0,0E0,9.9443436E-2,0E0,0E0],"parents":[2147483647,0,0,1,1,2,2,6,6],"right_children":[2,4,6,-1,-1,-1,8,-1,-1],"split_conditions":[1E0,1E0,1E0,-1.4770491E-1,1.4185119E-1,1.3902272E-1,1E0,1.3444017E-1,3.0318993E-1],"split_indices":[74,32,101,0,0,0,55,0,0],"split_type":[0,0,0,0,0,0,0,0,0],"sum_hessian":[6.830414E1,4.447422E1,2.3829916E1,4.0971733E1,3.5024872E0,3.2096648E0,2.062025E1,2.7120583E0,1.7908194E1],"tree_param":{"num_deleted":"0","num_feature":"133","num_nodes":"9","size_leaf_vector":"1"}},{"base_weights":[3.295733E-2,-4.521747E-1,7.568794E-1,-1.474866E-1,1.0980105E-1,1.9205377E0,1.7645976E-1,9.4826794E-1,-7.718224E-2],"categories":[],"categories_nodes":[],"categories_segments":[],"categories_sizes":[],"default_left":[0,0,0,0,0,0,0,0,0],"id":59,"left_children":[1,3,5,-1,-1,7,-1,-1,-1],"loss_changes":[2.4429401E1,1.5255327E0,4.345539E0,0E0,0E0,9.160179E0,0E0,0E0,0E0],"parents":[2147483647,0,0,1,1,2,2,5,5],"right_children":[2,4,6,-1,-1,8,-1,-1,-1],"split_conditions":[1E0,1E0,1E0,-1.474866E-1,1.0980105E-1,1E0,1.7645976E-1,9.4826794E-1,-7.718224E-2],"split_indices":[108,120,120,0,0,105,0,0,0],"split_type":[0,0,0,0,0,0,0,0,0],"sum_hessian":[6.758574E1,4.0691776E1,2.6893965E1,3.9200886E1,1.4908876E0,2.0900261E0,2.480394E1,1.0440105E0,1.0460156E0],"tree_param":{"num_deleted":"0","num_feature":"133","num_nodes":"9","size_leaf_vector":"1"}},{"base_weights":[6.374751E-2,-4.16565E-1,8.954655E-1,-1.4763679E-1,1.3897605E-1,9.3969417E-1,1.7685923E-1],"categories":[],"categories_nodes":[],"categories_segments":[],"categories_sizes":[],"default_left":[0,0,0,0,0,0,0],"id":60,"left_children":[1,3,5,-1,-1,-1,-1],"loss_changes":[2.8078564E1,3.1959524E0,1.5745163E1,0E0,0E0,0E0,0E0],"parents":[2147483647,0,0,1,1,2,2],"right_children":[2,4,6,-1,-1,-1,-1],"split_conditions":[1E0,1E0,1E0,-1.4763679E-1,1.3897605E-1,9.3969417E-1,1.7685923E-1],"split_indices":[109,29,29,0,0,0,0],"split_type":[0,0,0,0,0,0,0],"sum_hessian":[6.8353226E1,4.364667E1,2.4706558E1,4.06006E1,3.0460694E0,1.8610377E0,2.284552E1],"tree_param":{"num_deleted":"0","num_feature":"133","num_nodes":"7","size_leaf_vector":"1"}},{"base_weights":[1.2564412E-1,-4.565134E-1,6.665088E-1,-1.5258728E-1,2.3769828E-2,8.922623E-1,-1.5109183E-1,-1.0493194E-1,1.3958071E-1,2.166854E0,2.1273325E-1,-7.661987E-2,9.0441424E-1],"categories":[],"categories_nodes":[],"categories_segments":[],"categories_sizes":[],"default_left":[0,0,0,0,0,0,0,0,0,0,0,0,0],"id":61,"left_children":[1,3,5,-1,7,9,-1,-1,-1,11,-1,-1,-1],"loss_changes":[2.7148573E1,1.0546026E0,1.223159E1,0E0,9.9268425E-1,7.275772E0,0E0,0E0,0E0,9.511442E0,0E0,0E0,0E0],"parents":[2147483647,0,0,1,1,2,2,4,4,5,5,9,9],"right_children":[2,4,6,-1,8,10,-1,-1,-1,12,-1,-1,-1],"split_conditions":[1E0,1E0,1E0,-1.5258728E-1,1E0,1E0,-1.5109183E-1,-1.0493194E-1,1.3958071E-1,1E0,2.1273325E-1,-7.661987E-2,9.0441424E-1],"split_indices":[18,110,26,0,14,14,0,0,0,110,0,0,0],"split_type":[0,0,0,0,0,0,0,0,0,0,0,0,0],"sum_hessian":[8.4255615E1,4.0653908E1,4.360171E1,3.662146E1,4.0324464E0,3.6749256E1,6.852454E0,2.2968724E0,1.7355739E0,3.2563899E0,3.3492867E1,1.0254763E0,2.2309134E0],"tree_param":{"num_deleted":"0","num_feature":"133","num_nodes":"13","size_leaf_vector":"1"}},{"base_weights":[-4.035196E-2,-1.4763841E-1,1.8044694E-1],"categories":[],"categories_nodes":[],"categories_segments":[],"categories_sizes":[],"default_left":[0,0,0],"id":62,"left_children":[1,-1,-1],"loss_changes":[2.0578608E1,0E0,0E0],"parents":[2147483647,0,0],"right_children":[2,-1,-1],"split_conditions":[1E0,-1.4763841E-1,1.8044694E-1],"split_indices":[88,0,0],"split_type":[0,0,0],"sum_hessian":[6.8947525E1,4.0602043E1,2.8345488E1],"tree_param":{"num_deleted":"0","num_feature":"133","num_nodes":"3","size_leaf_vector":"1"}},{"base_weights":[3.250292E-2,-4.3274674E-1,5.570787E-1,-1.468061E-1,1.6966507E-1,8.1348413E-1,-1.305104E-1,-7.569887E-2,1.2157758E-1,6.3417363E-1,2.0159897E-1],"categories":[],"categories_nodes":[],"categories_segments":[],"categories_sizes":[],"default_left":[0,0,0,0,0,0,0,0,0,0,0],"id":63,"left_children":[1,3,5,-1,7,9,-1,-1,-1,-1,-1],"loss_changes":[1.6859524E1,1.3327956E0,8.606754E0,0E0,4.8905674E-1,3.386938E0,0E0,0E0,0E0,0E0,0E0],"parents":[2147483647,0,0,1,1,2,2,4,4,5,5],"right_children":[2,4,6,-1,8,10,-1,-1,-1,-1,-1],"split_conditions":[1E0,1E0,1E0,-1.468061E-1,1E0,1E0,-1.305104E-1,-7.569887E-2,1.2157758E-1,6.3417363E-1,2.0159897E-1],"split_indices":[132,131,0,0,39,39,0,0,0,0,0],"split_type":[0,0,0,0,0,0,0,0,0,0,0],"sum_hessian":[6.709202E1,3.564939E1,3.1442625E1,3.2758816E1,2.8905773E0,2.5128399E1,6.3142266E0,1.010154E0,1.8804234E0,1.0977982E0,2.40306E1],"tree_param":{"num_deleted":"0","num_feature":"133","num_nodes":"11","size_leaf_vector":"1"}},{"base_weights":[5.4586645E-2,-4.5997003E-1,5.7477945E-1,-1.5085429E-1,-2.309107E-1,6.778324E-1,-1.5543416E-1,-1.2846379E-1,1.12724654E-1,-9.5736995E-2,7.8835857E-1,-1.12843014E-1,1.1343189E-1,7.22948E-2,2.4840216E-1],"categories":[],"categories_nodes":[],"categories_segments":[],"categories_sizes":[],"default_left":[0,0,0,0,0,0,0,0,0,0,0,0,0,0,0],"id":64,"left_children":[1,3,5,-1,7,9,-1,-1,-1,11,13,-1,-1,-1,-1],"loss_changes":[2.1396626E1,2.7915478E-1,4.8229113E0,0E0,1.1417745E0,3.2146912E0,0E0,0E0,0E0,8.7058395E-1,5.0003433E-1,0E0,0E0,0E0,0E0],"parents":[2147483647,0,0,1,1,2,2,4,4,5,5,9,9,10,10],"right_children":[2,4,6,-1,8,10,-1,-1,-1,12,14,-1,-1,-1,-1],"split_conditions":[1E0,1E0,1E0,-1.5085429E-1,1E0,1E0,-1.5543416E-1,-1.2846379E-1,1.12724654E-1,1E0,1E0,-1.12843014E-1,1.1343189E-1,7.22948E-2,2.4840216E-1],"split_indices":[56,72,21,0,28,132,0,0,0,0,41,0,0,0,0],"split_type":[0,0,0,0,0,0,0,0,0,0,0,0,0,0,0],"sum_hessian":[7.794927E1,3.9245125E1,3.8704147E1,3.205035E1,7.194772E0,3.571612E1,2.9880245E0,5.6510468E0,1.5437249E0,4.4818172E0,3.1234304E1,2.9451506E0,1.5366665E0,2.5876753E0,2.864663E1],"tree_param":{"num_deleted":"0","num_feature":"133","num_nodes":"15","size_leaf_vector":"1"}},{"base_weights":[-3.6988504E-2,-1.476385E-1,1.8144606E-1],"categories":[],"categories_nodes":[],"categories_segments":[],"categories_sizes":[],"default_left":[0,0,0],"id":65,"left_children":[1,-1,-1],"loss_changes":[2.0792744E1,0E0,0E0],"parents":[2147483647,0,0],"right_children":[2,-1,-1],"split_conditions":[1E0,-1.476385E-1,1.8144606E-1],"split_indices":[21,0,0],"split_type":[0,0,0],"sum_hessian":[6.91616E1,4.0601902E1,2.8559698E1],"tree_param":{"num_deleted":"0","num_feature":"133","num_nodes":"3","size_leaf_vector":"1"}},{"base_weights":[7.2584637E-3,-4.520837E-1,6.5526134E-1,-1.4741005E-1,1.0820114E-1,7.152338E-1,-8.934236E-2,5.645074E-1,1.756016E-1],"categories":[],"categories_nodes":[],"categories_segments":[],"categories_sizes":[],"default_left":[0,0,0,0,0,0,0,0,0],"id":66,"left_children":[1,3,5,-1,-1,7,-1,-1,-1],"loss_changes":[2.0764746E1,1.4809036E0,1.8667698E0,0E0,0E0,3.06748E0,0E0,0E0,0E0],"parents":[2147483647,0,0,1,1,2,2,5,5],"right_children":[2,4,6,-1,-1,8,-1,-1,-1],"split_conditions":[1E0,1E0,1E0,-1.4741005E-1,1.0820114E-1,1E0,-8.934236E-2,5.645074E-1,1.756016E-1],"split_indices":[61,58,73,0,0,58,0,0,0],"split_type":[0,0,0,0,0,0,0,0,0],"sum_hessian":[6.7765884E1,3.9832573E1,2.7933306E1,3.8373295E1,1.4592781E0,2.6514418E1,1.4188892E0,1.3054307E0,2.5208986E1],"tree_param":{"num_deleted":"0","num_feature":"133","num_nodes":"9","size_leaf_vector":"1"}},{"base_weights":[-6.1080933E-2,-1.475798E-1,5.5273044E-1,1.2728413E-2,1.7476514E-1],"categories":[],"categories_nodes":[],"categories_segments":[],"categories_sizes":[],"default_left":[0,0,0,0,0],"id":67,"left_children":[1,-1,3,-1,-1],"loss_changes":[1.8403564E1,0E0,4.127407E-1,0E0,0E0],"parents":[2147483647,0,0,2,2],"right_children":[2,-1,4,-1,-1],"split_conditions":[1E0,-1.475798E-1,1E0,1.2728413E-2,1.7476514E-1],"split_indices":[1,0,128,0,0],"split_type":[0,0,0,0,0],"sum_hessian":[6.7560616E1,3.981317E1,2.7747444E1,1.6656936E0,2.608175E1],"tree_param":{"num_deleted":"0","num_feature":"133","num_nodes":"5","size_leaf_vector":"1"}},{"base_weights":[-5.4875586E-2,-1.4763714E-1,1.7241806E-1],"categories":[],"categories_nodes":[],"categories_segments":[],"categories_sizes":[],"default_left":[0,0,0],"id":68,"left_children":[1,-1,-1],"loss_changes":[1.9427067E1,0E0,0E0],"parents":[2147483647,0,0],"right_children":[2,-1,-1],"split_conditions":[1E0,-1.4763714E-1,1.7241806E-1],"split_indices":[80,0,0],"split_type":[0,0,0],"sum_hessian":[6.8541405E1,4.057861E1,2.79628E1],"tree_param":{"num_deleted":"0","num_feature":"133","num_nodes":"3","size_leaf_vector":"1"}},{"base_weights":[-6.272894E-2,-1.4763759E-1,1.7545688E-1],"categories":[],"categories_nodes":[],"categories_segments":[],"categories_sizes":[],"default_left":[0,0,0],"id":69,"left_children":[1,-1,-1],"loss_changes":[1.9275045E1,0E0,0E0],"parents":[2147483647,0,0],"right_children":[2,-1,-1],"split_conditions":[1E0,-1.4763759E-1,1.7545688E-1],"split_indices":[15,0,0],"split_type":[0,0,0],"sum_hessian":[6.7282E1,4.0600773E1,2.6681223E1],"tree_param":{"num_deleted":"0","num_feature":"133","num_nodes":"3","size_leaf_vector":"1"}},{"base_weights":[6.614069E-3,-4.4743308E-1,2.294891E-1,-1.4763863E-1,1.1663193E-1],"categories":[],"categories_nodes":[],"categories_segments":[],"categories_sizes":[],"default_left":[0,0,0,0,0],"id":70,"left_children":[1,3,-1,-1,-1],"loss_changes":[2.3926775E1,1.8161612E0,0E0,0E0,0E0],"parents":[2147483647,0,0,1,1],"right_children":[2,4,-1,-1,-1],"split_conditions":[1E0,1E0,2.294891E-1,-1.4763863E-1,1.1663193E-1],"split_indices":[10,90,0,0,0],"split_type":[0,0,0,0,0],"sum_hessian":[6.7494606E1,4.2474068E1,2.5020536E1,4.070959E1,1.7644755E0],"tree_param":{"num_deleted":"0","num_feature":"133","num_nodes":"5","size_leaf_vector":"1"}},{"base_weights":[4.9486034E-2,-4.4899273E-1,7.1079767E-1,-1.4710188E-1,-6.574026E-2,2.616318E-1,-1.1724931E-1,-1.0769289E-1,1.1087901E-1],"categories":[],"categories_nodes":[],"categories_segments":[],"categories_sizes":[],"default_left":[0,0,0,0,0,0,0,0,0],"id":71,"left_children":[1,3,5,-1,7,-1,-1,-1,-1],"loss_changes":[2.2896751E1,5.9631777E-1,5.6406317E0,0E0,7.7318114E-1,0E0,0E0,0E0,0E0],"parents":[2147483647,0,0,1,1,2,2,4,4],"right_children":[2,4,6,-1,8,-1,-1,-1,-1],"split_conditions":[1E0,1E0,1E0,-1.4710188E-1,1E0,2.616318E-1,-1.1724931E-1,-1.0769289E-1,1.1087901E-1],"split_indices":[28,128,131,0,0,0,0,0,0],"split_type":[0,0,0,0,0,0,0,0,0],"sum_hessian":[6.748968E1,3.8665634E1,2.8824047E1,3.4648224E1,4.017409E0,2.5324242E1,3.4998047E0,2.505291E0,1.512118E0],"tree_param":{"num_deleted":"0","num_feature":"133","num_nodes":"9","size_leaf_vector":"1"}},{"base_weights":[2.4184521E-2,-1.474181E-1,6.691282E-1,7.4094146E-1,-9.692575E-2,7.1772635E-1,1.7481601E-1],"categories":[],"categories_nodes":[],"categories_segments":[],"categories_sizes":[],"default_left":[0,0,0,0,0,0,0],"id":72,"left_children":[1,-1,3,5,-1,-1,-1],"loss_changes":[2.3327724E1,0E0,2.4590464E0,6.275673E0,0E0,0E0,0E0],"parents":[2147483647,0,0,2,2,3,3],"right_children":[2,-1,4,6,-1,-1,-1],"split_conditions":[1E0,-1.474181E-1,1E0,1E0,-9.692575E-2,7.1772635E-1,1.7481601E-1],"split_indices":[69,0,60,110,0,0,0],"split_type":[0,0,0,0,0,0,0],"sum_hessian":[6.8165764E1,3.8014473E1,3.0151289E1,2.835247E1,1.7988179E0,1.244277E0,2.7108192E1],"tree_param":{"num_deleted":"0","num_feature":"133","num_nodes":"7","size_leaf_vector":"1"}},{"base_weights":[2.347208E-2,-4.6225947E-1,7.491248E-1,-1.4759466E-1,9.658748E-2,7.4214566E-1,1.744951E-1],"categories":[],"categories_nodes":[],"categories_segments":[],"categories_sizes":[],"default_left":[0,0,0,0,0,0,0],"id":73,"left_children":[1,3,5,-1,-1,-1,-1],"loss_changes":[2.4742651E1,1.139246E0,6.687644E0,0E0,0E0,0E0,0E0],"parents":[2147483647,0,0,1,1,2,2],"right_children":[2,4,6,-1,-1,-1,-1],"split_conditions":[1E0,1E0,1E0,-1.4759466E-1,9.658748E-2,7.4214566E-1,1.744951E-1],"split_indices":[30,122,122,0,0,0,0],"split_type":[0,0,0,0,0,0,0],"sum_hessian":[6.821494E1,4.1080074E1,2.7134872E1,3.9938988E1,1.1410854E0,1.1827989E0,2.5952074E1],"tree_param":{"num_deleted":"0","num_feature":"133","num_nodes":"7","size_leaf_vector":"1"}},{"base_weights":[7.3330253E-3,-4.4731137E-1,2.2942103E-1,-1.4766204E-1,1.17003955E-1],"categories":[],"categories_nodes":[],"categories_segments":[],"categories_sizes":[],"default_left":[0,0,0,0,0],"id":74,"left_children":[1,3,-1,-1,-1],"loss_changes":[2.3983063E1,1.8284464E0,0E0,0E0,0E0],"parents":[2147483647,0,0,1,1],"right_children":[2,4,-1,-1,-1],"split_conditions":[1E0,1E0,2.2942103E-1,-1.4766204E-1,1.17003955E-1],"split_indices":[57,46,0,0,0],"split_type":[0,0,0,0,0],"sum_hessian":[6.7654076E1,4.2532585E1,2.5121489E1,4.075933E1,1.7732545E0],"tree_param":{"num_deleted":"0","num_feature":"133","num_nodes":"5","size_leaf_vector":"1"}},{"base_weights":[4.8121195E-3,-4.327873E-1,2.2824845E-1,-1.4763077E-1,1.286783E-1],"categories":[],"categories_nodes":[],"categories_segments":[],"categories_sizes":[],"default_left":[0,0,0,0,0],"id":75,"left_children":[1,3,-1,-1,-1],"loss_changes":[2.2970522E1,2.4592447E0,0E0,0E0,0E0],"parents":[2147483647,0,0,1,1],"right_children":[2,4,-1,-1,-1],"split_conditions":[1E0,1E0,2.2824845E-1,-1.4763077E-1,1.286783E-1],"split_indices":[126,4,0,0,0],"split_type":[0,0,0,0,0],"sum_hessian":[6.743725E1,4.2984425E1,2.4452827E1,4.061749E1,2.3669357E0],"tree_param":{"num_deleted":"0","num_feature":"133","num_nodes":"5","size_leaf_vector":"1"}},{"base_weights":[-6.9941934E-3,-4.4642627E-1,2.2008051E-1,-1.4764872E-1,1.1817297E-1],"categories":[],"categories_nodes":[],"categories_segments":[],"categories_sizes":[],"default_left":[0,0,0,0,0],"id":76,"left_children":[1,3,-1,-1,-1],"loss_changes":[2.2561958E1,1.8657513E0,0E0,0E0,0E0],"parents":[2147483647,0,0,1,1],"right_children":[2,4,-1,-1,-1],"split_conditions":[1E0,1E0,2.2008051E-1,-1.4764872E-1,1.1817297E-1],"split_indices":[81,51,0,0,0],"split_type":[0,0,0,0,0],"sum_hessian":[6.7320885E1,4.250047E1,2.4820417E1,4.0699677E1,1.8007922E0],"tree_param":{"num_deleted":"0","num_feature":"133","num_nodes":"5","size_leaf_vector":"1"}},{"base_weights":[-5.2110415E-2,-1.4763814E-1,1.7866385E-1],"categories":[],"categories_nodes":[],"categories_segments":[],"categories_sizes":[],"default_left":[0,0,0],"id":77,"left_children":[1,-1,-1],"loss_changes":[1.9943304E1,0E0,0E0],"parents":[2147483647,0,0],"right_children":[2,-1,-1],"split_conditions":[1E0,-1.4763814E-1,1.7866385E-1],"split_indices":[95,0,0],"split_type":[0,0,0],"sum_hessian":[6.795306E1,4.0605736E1,2.734732E1],"tree_param":{"num_deleted":"0","num_feature":"133","num_nodes":"3","size_leaf_vector":"1"}},{"base_weights":[-2.1899268E-2,-4.616622E-1,2.0813805E-1,-1.4763719E-1,9.925718E-2],"categories":[],"categories_nodes":[],"categories_segments":[],"categories_sizes":[],"default_left":[0,0,0,0,0],"id":78,"left_children":[1,3,-1,-1,-1],"loss_changes":[2.179083E1,1.197402E0,0E0,0E0,0E0],"parents":[2147483647,0,0,1,1],"right_children":[2,4,-1,-1,-1],"split_conditions":[1E0,1E0,2.0813805E-1,-1.4763719E-1,9.925718E-2],"split_indices":[98,50,0,0,0],"split_type":[0,0,0,0,0],"sum_hessian":[6.721777E1,4.1854748E1,2.536303E1,4.0670547E1,1.1841986E0],"tree_param":{"num_deleted":"0","num_feature":"133","num_nodes":"5","size_leaf_vector":"1"}},{"base_weights":[-4.60182E-2,-1.4763802E-1,1.7714809E-1],"categories":[],"categories_nodes":[],"categories_segments":[],"categories_sizes":[],"default_left":[0,0,0],"id":79,"left_children":[1,-1,-1],"loss_changes":[2.0116594E1,0E0,0E0],"parents":[2147483647,0,0],"right_children":[2,-1,-1],"split_conditions":[1E0,-1.4763802E-1,1.7714809E-1],"split_indices":[11,0,0],"split_type":[0,0,0],"sum_hessian":[6.882131E1,4.0595913E1,2.8225399E1],"tree_param":{"num_deleted":"0","num_feature":"133","num_nodes":"3","size_leaf_vector":"1"}},{"base_weights":[-5.010369E-3,-4.4791013E-1,2.1800153E-1,-1.4764331E-1,1.15885995E-1],"categories":[],"categories_nodes":[],"categories_segments":[],"categories_sizes":[],"default_left":[0,0,0,0,0],"id":80,"left_children":[1,3,-1,-1,-1],"loss_changes":[2.2593193E1,1.7924147E0,0E0,0E0,0E0],"parents":[2147483647,0,0,1,1],"right_children":[2,4,-1,-1,-1],"split_conditions":[1E0,1E0,2.1800153E-1,-1.4764331E-1,1.15885995E-1],"split_indices":[119,7,0,0,0],"split_type":[0,0,0,0,0],"sum_hessian":[6.771438E1,4.24229E1,2.5291477E1,4.067605E1,1.7468538E0],"tree_param":{"num_deleted":"0","num_feature":"133","num_nodes":"5","size_leaf_vector":"1"}},{"base_weights":[9.048796E-3,-4.4825956E-1,2.2833346E-1,-1.4766204E-1,1.15574E-1],"categories":[],"categories_nodes":[],"categories_segments":[],"categories_sizes":[],"default_left":[0,0,0,0,0],"id":81,"left_children":[1,3,-1,-1,-1],"loss_changes":[2.4049154E1,1.7829151E0,0E0,0E0,0E0],"parents":[2147483647,0,0,1,1],"right_children":[2,4,-1,-1,-1],"split_conditions":[1E0,1E0,2.2833346E-1,-1.4766204E-1,1.15574E-1],"split_indices":[9,24,0,0,0],"split_type":[0,0,0,0,0],"sum_hessian":[6.793366E1,4.2496613E1,2.5437046E1,4.0757137E1,1.7394773E0],"tree_param":{"num_deleted":"0","num_feature":"133","num_nodes":"5","size_leaf_vector":"1"}},{"base_weights":[-1.8079046E-2,-4.7028252E-1,2.0493032E-1,-1.475615E-1,5.1655583E-3],"categories":[],"categories_nodes":[],"categories_segments":[],"categories_sizes":[],"default_left":[0,0,0,0,0],"id":82,"left_children":[1,3,-1,-1,-1],"loss_changes":[2.215597E1,4.5530987E-1,0E0,0E0,0E0],"parents":[2147483647,0,0,1,1],"right_children":[2,4,-1,-1,-1],"split_conditions":[1E0,1E0,2.0493032E-1,-1.475615E-1,5.1655583E-3],"split_indices":[116,75,0,0,0],"split_type":[0,0,0,0,0],"sum_hessian":[6.786272E1,4.145619E1,2.6406532E1,3.9689556E1,1.766631E0],"tree_param":{"num_deleted":"0","num_feature":"133","num_nodes":"5","size_leaf_vector":"1"}},{"base_weights":[-5.7950065E-2,-1.4752372E-1,5.280232E-1,1.7548648E-1,-9.1756485E-2],"categories":[],"categories_nodes":[],"categories_segments":[],"categories_sizes":[],"default_left":[0,0,0,0,0],"id":83,"left_children":[1,-1,3,-1,-1],"loss_changes":[1.775452E1,0E0,1.5917187E0,0E0,0E0],"parents":[2147483647,0,0,2,2],"right_children":[2,-1,4,-1,-1],"split_conditions":[1E0,-1.4752372E-1,1E0,1.7548648E-1,-9.1756485E-2],"split_indices":[65,0,64,0,0],"split_type":[0,0,0,0,0],"sum_hessian":[6.7825226E1,3.906571E1,2.8759516E1,2.7200928E1,1.5585887E0],"tree_param":{"num_deleted":"0","num_feature":"133","num_nodes":"5","size_leaf_vector":"1"}},{"base_weights":[-7.8934146E-4,-4.1126344E-1,2.1741635E-1,-1.4664294E-1,1.2536757E-1],"categories":[],"categories_nodes":[],"categories_segments":[],"categories_sizes":[],"default_left":[0,0,0,0,0],"id":84,"left_children":[1,3,-1,-1,-1],"loss_changes":[1.6651564E1,2.5003085E0,0E0,0E0,0E0],"parents":[2147483647,0,0,1,1],"right_children":[2,4,-1,-1,-1],"split_conditions":[1E0,1E0,2.1741635E-1,-1.4664294E-1,1.2536757E-1],"split_indices":[104,121,0,0,0],"split_type":[0,0,0,0,0],"sum_hessian":[5.391381E1,3.4709347E1,1.9204466E1,3.211617E1,2.5931773E0],"tree_param":{"num_deleted":"0","num_feature":"133","num_nodes":"5","size_leaf_vector":"1"}},{"base_weights":[2.9842744E-2,-4.2526922E-1,2.5698927E-1,-1.467288E-1,1.20067604E-1],"categories":[],"categories_nodes":[],"categories_segments":[],"categories_sizes":[],"default_left":[0,0,0,0,0],"id":85,"left_children":[1,3,-1,-1,-1],"loss_changes":[2.0640835E1,2.0621696E0,0E0,0E0,0E0],"parents":[2147483647,0,0,1,1],"right_children":[2,4,-1,-1,-1],"split_conditions":[1E0,1E0,2.5698927E-1,-1.467288E-1,1.20067604E-1],"split_indices":[70,38,0,0,0],"split_type":[0,0,0,0,0],"sum_hessian":[5.288666E1,3.4423576E1,1.8463089E1,3.2331253E1,2.0923219E0],"tree_param":{"num_deleted":"0","num_feature":"133","num_nodes":"5","size_leaf_vector":"1"}},{"base_weights":[6.200274E-2,-4.1610265E-1,8.009951E-1,-1.4685701E-1,1.2448806E-1,5.134872E-1,1.6531737E-1],"categories":[],"categories_nodes":[],"categories_segments":[],"categories_sizes":[],"default_left":[0,0,0,0,0,0,0],"id":86,"left_children":[1,3,5,-1,-1,-1,-1],"loss_changes":[2.0860466E1,2.3957348E0,4.3290167E0,0E0,0E0,0E0,0E0],"parents":[2147483647,0,0,1,1,2,2],"right_children":[2,4,6,-1,-1,-1,-1],"split_conditions":[1E0,1E0,1E0,-1.4685701E-1,1.2448806E-1,5.134872E-1,1.6531737E-1],"split_indices":[96,8,87,0,0,0,0],"split_type":[0,0,0,0,0,0,0],"sum_hessian":[5.709857E1,3.493417E1,2.2164402E1,3.2476025E1,2.4581435E0,3.5138223E0,1.865058E1],"tree_param":{"num_deleted":"0","num_feature":"133","num_nodes":"7","size_leaf_vector":"1"}},{"base_weights":[-2.3326248E-2,-1.3822612E-1,2.0182262E-1],"categories":[],"categories_nodes":[],"categories_segments":[],"categories_sizes":[],"default_left":[0,0,0],"id":87,"left_children":[1,-1,-1],"loss_changes":[1.6891205E1,0E0,0E0],"parents":[2147483647,0,0],"right_children":[2,-1,-1],"split_conditions":[1E0,-1.3822612E-1,2.0182262E-1],"split_indices":[113,0,0],"split_type":[0,0,0],"sum_hessian":[5.345766E1,3.3035408E1,2.0422249E1],"tree_param":{"num_deleted":"0","num_feature":"133","num_nodes":"3","size_leaf_vector":"1"}},{"base_weights":[5.307103E-2,-4.2063412E-1,9.0946525E-1,-1.4660223E-1,1.2124907E-1,1.22910276E-1,9.5852417E-1,1.1096915E-1,3.0129242E-1],"categories":[],"categories_nodes":[],"categories_segments":[],"categories_sizes":[],"default_left":[0,0,0,0,0,0,0,0,0],"id":88,"left_children":[1,3,5,-1,-1,-1,7,-1,-1],"loss_changes":[2.217449E1,2.1768289E0,8.4098816E-2,0E0,0E0,0E0,8.563709E-2,0E0,0E0],"parents":[2147483647,0,0,1,1,2,2,6,6],"right_children":[2,4,6,-1,-1,-1,8,-1,-1],"split_conditions":[1E0,1E0,1E0,-1.4660223E-1,1.2124907E-1,1.22910276E-1,1E0,1.1096915E-1,3.0129242E-1],"split_indices":[124,97,25,0,0,0,19,0,0],"split_type":[0,0,0,0,0,0,0,0,0],"sum_hessian":[5.2717278E1,3.427002E1,1.8447258E1,3.2034893E1,2.2351284E0,2.4848843E0,1.5962375E1,1.8071885E0,1.4155186E1],"tree_param":{"num_deleted":"0","num_feature":"133","num_nodes":"9","size_leaf_vector":"1"}},{"base_weights":[9.177695E-3,-4.6733373E-1,6.892023E-1,-1.4659478E-1,1.1620315E-2,4.818801E-1,1.6468748E-1],"categories":[],"categories_nodes":[],"categories_segments":[],"categories_sizes":[],"default_left":[0,0,0,0,0,0,0],"id":89,"left_children":[1,3,5,-1,-1,-1,-1],"loss_changes":[1.8492731E1,3.8102198E-1,2.1416655E0,0E0,0E0,0E0,0E0],"parents":[2147483647,0,0,1,1,2,2],"right_children":[2,4,6,-1,-1,-1,-1],"split_conditions":[1E0,1E0,1E0,-1.4659478E-1,1.1620315E-2,4.818801E-1,1.6468748E-1],"split_indices":[112,71,67,0,0,0,0],"split_type":[0,0,0,0,0,0,0],"sum_hessian":[5.5075397E1,3.2567352E1,2.2508045E1,3.1284092E1,1.283261E0,1.598963E0,2.0909082E1],"tree_param":{"num_deleted":"0","num_feature":"133","num_nodes":"7","size_leaf_vector":"1"}},{"base_weights":[3.542918E-2,-4.6336406E-1,6.790514E-1,-1.4620551E-1,-1.6608323E-1,2.2833103E-1,-9.502178E-2,1.1312328E-2,-9.055063E-2],"categories":[],"categories_nodes":[],"categories_segments":[],"categories_sizes":[],"default_left":[0,0,0,0,0,0,0,0,0],"id":90,"left_children":[1,3,5,-1,7,-1,-1,-1,-1],"loss_changes":[1.8817377E1,1.5484858E-1,2.3302813E0,0E0,1.21648364E-1,0E0,0E0,0E0,0E0],"parents":[2147483647,0,0,1,1,2,2,4,4],"right_children":[2,4,6,-1,8,-1,-1,-1,-1],"split_conditions":[1E0,1E0,1E0,-1.4620551E-1,1E0,2.2833103E-1,-9.502178E-2,1.1312328E-2,-9.055063E-2],"split_indices":[39,14,60,0,123,0,0,0,0],"split_type":[0,0,0,0,0,0,0,0,0],"sum_hessian":[5.6634716E1,3.206506E1,2.4569656E1,2.9079283E1,2.9857776E0,2.2917002E1,1.6526549E0,1.4824926E0,1.5032852E0],"tree_param":{"num_deleted":"0","num_feature":"133","num_nodes":"9","size_leaf_vector":"1"}},{"base_weights":[5.029734E-2,-4.5120773E-1,7.698732E-1,-1.4675908E-1,9.575507E-2,1.7866889E0,1.6673833E-1,-8.581468E-2,9.1806644E-1],"categories":[],"categories_nodes":[],"categories_segments":[],"categories_sizes":[],"default_left":[0,0,0,0,0,0,0,0,0],"id":91,"left_children":[1,3,5,-1,-1,7,-1,-1,-1],"loss_changes":[2.091617E1,1.1576099E0,4.1831026E0,0E0,0E0,1.0600291E1,0E0,0E0,0E0],"parents":[2147483647,0,0,1,1,2,2,5,5],"right_children":[2,4,6,-1,-1,8,-1,-1,-1],"split_conditions":[1E0,1E0,1E0,-1.4675908E-1,9.575507E-2,1E0,1.6673833E-1,-8.581468E-2,9.1806644E-1],"split_indices":[34,125,125,0,0,6,0,0,0],"split_type":[0,0,0,0,0,0,0,0,0],"sum_hessian":[5.5997654E1,3.321887E1,2.2778784E1,3.2005627E1,1.2132444E0,2.6841009E0,2.0094683E1,1.316622E0,1.3674787E0],"tree_param":{"num_deleted":"0","num_feature":"133","num_nodes":"9","size_leaf_vector":"1"}},{"base_weights":[-6.610983E-2,-1.4656094E-1,5.208508E-1,3.0170947E-2,1.6501266E-1],"categories":[],"categories_nodes":[],"categories_segments":[],"categories_sizes":[],"default_left":[0,0,0,0,0],"id":92,"left_children":[1,-1,3,-1,-1],"loss_changes":[1.3878526E1,0E0,2.327404E-1,0E0,0E0],"parents":[2147483647,0,0,2,2],"right_children":[2,-1,4,-1,-1],"split_conditions":[1E0,-1.4656094E-1,1E0,3.0170947E-2,1.6501266E-1],"split_indices":[91,0,55,0,0],"split_type":[0,0,0,0,0],"sum_hessian":[5.3947342E1,3.146799E1,2.247935E1,1.7486379E0,2.0730711E1],"tree_param":{"num_deleted":"0","num_feature":"133","num_nodes":"5","size_leaf_vector":"1"}},{"base_weights":[7.986887E-2,-4.3307027E-1,6.7917264E-1,-1.4565697E-1,-3.5871495E-2,8.854762E-1,-1.2016183E-1,-9.99253E-2,9.215081E-2,9.7013986E-1,-8.4438995E-2,7.423315E-2,9.97434E-1,9.253432E-2,1.0234872E0,9.314449E-2,3.1596857E-1],"categories":[],"categories_nodes":[],"categories_segments":[],"categories_sizes":[],"default_left":[0,0,0,0,0,0,0,0,0,0,0,0,0,0,0,0,0],"id":93,"left_children":[1,3,5,-1,7,9,-1,-1,-1,11,-1,-1,13,-1,15,-1,-1],"loss_changes":[1.7334814E1,6.176057E-1,6.135893E0,0E0,5.7491124E-1,2.4566708E0,0E0,0E0,0E0,1.6410446E-1,0E0,0E0,3.8713455E-2,0E0,6.726837E-2,0E0,0E0],"parents":[2147483647,0,0,1,1,2,2,4,4,5,5,9,9,12,12,14,14],"right_children":[2,4,6,-1,8,10,-1,-1,-1,12,-1,-1,14,-1,16,-1,-1],"split_conditions":[1E0,1E0,1E0,-1.4565697E-1,1E0,1E0,-1.2016183E-1,-9.99253E-2,9.215081E-2,1E0,-8.4438995E-2,7.423315E-2,1E0,9.253432E-2,1E0,9.314449E-2,3.1596857E-1],"split_indices":[131,60,41,0,132,28,0,0,0,0,0,0,123,0,60,0,0],"split_type":[0,0,0,0,0,0,0,0,0,0,0,0,0,0,0,0,0],"sum_hessian":[5.4433743E1,2.9479694E1,2.4954048E1,2.5844387E1,3.6353064E0,2.1101938E1,3.8521087E0,1.9633079E0,1.6719986E0,1.9831753E1,1.270185E0,1.0880537E0,1.87437E1,1.1507523E0,1.7592947E1,1.1625239E0,1.6430424E1],"tree_param":{"num_deleted":"0","num_feature":"133","num_nodes":"17","size_leaf_vector":"1"}},{"base_weights":[-5.7013594E-2,-1.4662811E-1,1.655401E-1],"categories":[],"categories_nodes":[],"categories_segments":[],"categories_sizes":[],"default_left":[0,0,0],"id":94,"left_children":[1,-1,-1],"loss_changes":[1.4869427E1,0E0,0E0],"parents":[2147483647,0,0],"right_children":[2,-1,-1],"split_conditions":[1E0,-1.4662811E-1,1.655401E-1],"split_indices":[22,0,0],"split_type":[0,0,0],"sum_hessian":[5.4543224E1,3.2027664E1,2.251556E1],"tree_param":{"num_deleted":"0","num_feature":"133","num_nodes":"3","size_leaf_vector":"1"}},{"base_weights":[-2.7937624E-1,-1.466816E-1,5.09945E-1],"categories":[],"categories_nodes":[],"categories_segments":[],"categories_sizes":[],"default_left":[0,0,0],"id":95,"left_children":[1,-1,-1],"loss_changes":[1.5876602E1,0E0,0E0],"parents":[2147483647,0,0],"right_children":[2,-1,-1],"split_conditions":[1E0,-1.466816E-1,5.09945E-1],"split_indices":[118,0,0],"split_type":[0,0,0],"sum_hessian":[3.5274803E1,3.2578285E1,2.6965182E0],"tree_param":{"num_deleted":"0","num_feature":"133","num_nodes":"3","size_leaf_vector":"1"}},{"base_weights":[-6.470602E-2,-1.4662886E-1,1.6766845E-1],"categories":[],"categories_nodes":[],"categories_segments":[],"categories_sizes":[],"default_left":[0,0,0],"id":96,"left_children":[1,-1,-1],"loss_changes":[1.4715308E1,0E0,0E0],"parents":[2147483647,0,0],"right_children":[2,-1,-1],"split_conditions":[1E0,-1.4662886E-1,1.6766845E-1],"split_indices":[76,0,0],"split_type":[0,0,0],"sum_hessian":[5.3613605E1,3.2041313E1,2.1572292E1],"tree_param":{"num_deleted":"0","num_feature":"133","num_nodes":"3","size_leaf_vector":"1"}},{"base_weights":[-6.1993826E-2,-1.4662726E-1,1.6376486E-1],"categories":[],"categories_nodes":[],"categories_segments":[],"categories_sizes":[],"default_left":[0,0,0],"id":97,"left_children":[1,-1,-1],"loss_changes":[1.4612799E1,0E0,0E0],"parents":[2147483647,0,0],"right_children":[2,-1,-1],"split_conditions":[1E0,-1.4662726E-1,1.6376486E-1],"split_indices":[48,0,0],"split_type":[0,0,0],"sum_hessian":[5.4300327E1,3.201791E1,2.2282417E1],"tree_param":{"num_deleted":"0","num_feature":"133","num_nodes":"3","size_leaf_vector":"1"}},{"base_weights":[-5.87165E-3,-4.539577E-1,2.1579957E-1,-1.4663099E-1,9.094544E-2],"categories":[],"categories_nodes":[],"categories_segments":[],"categories_sizes":[],"default_left":[0,0,0,0,0],"id":98,"left_children":[1,3,-1,-1,-1],"loss_changes":[1.7980362E1,1.0493684E0,0E0,0E0,0E0],"parents":[2147483647,0,0,1,1],"right_children":[2,4,-1,-1,-1],"split_conditions":[1E0,1E0,2.1579957E-1,-1.4663099E-1,9.094544E-2],"split_indices":[77,12,0,0,0],"split_type":[0,0,0,0,0],"sum_hessian":[5.3327194E1,3.3192413E1,2.0134779E1,3.2072147E1,1.1202667E0],"tree_param":{"num_deleted":"0","num_feature":"133","num_nodes":"5","size_leaf_vector":"1"}},{"base_weights":[7.088566E-2,-4.1951504E-1,7.365188E-1,-1.4650187E-1,1.2047367E-1,3.864514E-1,1.6586661E-1],"categories":[],"categories_nodes":[],"categories_segments":[],"categories_sizes":[],"default_left":[0,0,0,0,0,0,0],"id":99,"left_children":[1,3,5,-1,-1,-1,-1],"loss_changes":[1.943649E1,2.1387682E0,1.8425846E0,0E0,0E0,0E0,0E0],"parents":[2147483647,0,0,1,1,2,2],"right_children":[2,4,6,-1,-1,-1,-1],"split_conditions":[1E0,1E0,1E0,-1.4650187E-1,1.2047367E-1,3.864514E-1,1.6586661E-1],"split_indices":[108,105,105,0,0,0,0],"split_type":[0,0,0,0,0,0,0],"sum_hessian":[5.7596596E1,3.337646E1,2.422013E1,3.116911E1,2.2073534E0,4.546558E0,1.9673574E1],"tree_param":{"num_deleted":"0","num_feature":"133","num_nodes":"7","size_leaf_vector":"1"}},{"base_weights":[7.007878E-2,-4.0390614E-1,9.4741476E-1,-1.4667417E-1,1.2922698E-1,1.2475233E0,1.6248292E-1],"categories":[],"categories_nodes":[],"categories_segments":[],"categories_sizes":[],"default_left":[0,0,0,0,0,0,0],"id":100,"left_children":[1,3,5,-1,-1,-1,-1],"loss_changes":[2.3083008E1,2.7750053E0,2.3086927E1,0E0,0E0,0E0,0E0],"parents":[2147483647,0,0,1,1,2,2],"right_children":[2,4,6,-1,-1,-1,-1],"split_conditions":[1E0,1E0,1E0,-1.4667417E-1,1.2922698E-1,1.2475233E0,1.6248292E-1],"split_indices":[74,32,32,0,0,0,0],"split_type":[0,0,0,0,0,0,0],"sum_hessian":[5.3588596E1,3.514238E1,1.8446217E1,3.227002E1,2.872361E0,1.0321169E0,1.7414099E1],"tree_param":{"num_deleted":"0","num_feature":"133","num_nodes":"7","size_leaf_vector":"1"}},{"base_weights":[3.4331772E-2,-4.1179663E-1,7.780228E-1,-1.4708517E-1,1.262875E-1,6.017918E-1,1.6551791E-1],"categories":[],"categories_nodes":[],"categories_segments":[],"categories_sizes":[],"default_left":[0,0,0,0,0,0,0],"id":101,"left_children":[1,3,5,-1,-1,-1,-1],"loss_changes":[1.9053585E1,2.5558085E0,4.8723974E0,0E0,0E0,0E0,0E0],"parents":[2147483647,0,0,1,1,2,2],"right_children":[2,4,6,-1,-1,-1,-1],"split_conditions":[1E0,1E0,1E0,-1.4708517E-1,1.262875E-1,6.017918E-1,1.6551791E-1],"split_indices":[2,120,120,0,0,0,0],"split_type":[0,0,0,0,0,0,0],"sum_hessian":[5.546242E1,3.4945473E1,2.051695E1,3.231137E1,2.6340995E0,1.9688808E0,1.8548069E1],"tree_param":{"num_deleted":"0","num_feature":"133","num_nodes":"7","size_leaf_vector":"1"}},{"base_weights":[6.0797065E-2,-4.125446E-1,7.83432E-1,-1.4661983E-1,1.2593082E-1,4.6440837E-1,1.6597557E-1],"categories":[],"categories_nodes":[],"categories_segments":[],"categories_sizes":[],"default_left":[0,0,0,0,0,0,0],"id":102,"left_children":[1,3,5,-1,-1,-1,-1],"loss_changes":[2.0058266E1,2.4573216E0,3.2230635E0,0E0,0E0,0E0,0E0],"parents":[2147483647,0,0,1,1,2,2],"right_children":[2,4,6,-1,-1,-1,-1],"split_conditions":[1E0,1E0,1E0,-1.4661983E-1,1.2593082E-1,4.6440837E-1,1.6597557E-1],"split_indices":[109,29,29,0,0,0,0],"split_type":[0,0,0,0,0,0,0],"sum_hessian":[5.669589E1,3.451616E1,2.2179728E1,3.1999775E1,2.516384E0,3.8073754E0,1.8372353E1],"tree_param":{"num_deleted":"0","num_feature":"133","num_nodes":"7","size_leaf_vector":"1"}},{"base_weights":[1.13209516E-1,-4.47641E-1,5.7295126E-1,-1.505167E-1,2.7956758E-2,7.588375E-1,-1.4389679E-1,-9.724593E-2,1.2274398E-1,3.6488733E-1,1.9113012E-1],"categories":[],"categories_nodes":[],"categories_segments":[],"categories_sizes":[],"default_left":[0,0,0,0,0,0,0,0,0,0,0],"id":103,"left_children":[1,3,5,-1,7,9,-1,-1,-1,-1,-1],"loss_changes":[1.9089527E1,8.7473536E-1,8.303388E0,0E0,7.1835095E-1,1.1671829E0,0E0,0E0,0E0,0E0,0E0],"parents":[2147483647,0,0,1,1,2,2,4,4,5,5],"right_children":[2,4,6,-1,8,10,-1,-1,-1,-1,-1],"split_conditions":[1E0,1E0,1E0,-1.505167E-1,1E0,1E0,-1.4389679E-1,-9.724593E-2,1.2274398E-1,3.6488733E-1,1.9113012E-1],"split_indices":[18,110,26,0,14,14,0,0,0,0,0],"split_type":[0,0,0,0,0,0,0,0,0,0,0],"sum_hessian":[7.20398E1,3.2463314E1,3.957649E1,2.909942E1,3.363894E0,3.387363E1,5.702861E0,1.8264277E0,1.5374662E0,5.229932E0,2.8643698E1],"tree_param":{"num_deleted":"0","num_feature":"133","num_nodes":"11","size_leaf_vector":"1"}},{"base_weights":[-4.6860218E-2,-1.4662907E-1,1.6996273E-1],"categories":[],"categories_nodes":[],"categories_segments":[],"categories_sizes":[],"default_left":[0,0,0],"id":104,"left_children":[1,-1,-1],"loss_changes":[1.5432298E1,0E0,0E0],"parents":[2147483647,0,0],"right_children":[2,-1,-1],"split_conditions":[1E0,-1.4662907E-1,1.6996273E-1],"split_indices":[88,0,0],"split_type":[0,0,0],"sum_hessian":[5.4910618E1,3.2035217E1,2.2875399E1],"tree_param":{"num_deleted":"0","num_feature":"133","num_nodes":"3","size_leaf_vector":"1"}},{"base_weights":[4.0880796E-2,-3.9911893E-1,5.780458E-1,-1.4586253E-1,7.088036E-2,7.845018E-1,-1.2165733E-1,4.251336E-1,1.9595304E-1],"categories":[],"categories_nodes":[],"categories_segments":[],"categories_sizes":[],"default_left":[0,0,0,0,0,0,0,0,0],"id":105,"left_children":[1,3,5,-1,-1,7,-1,-1,-1],"loss_changes":[1.3452501E1,1.8492746E0,5.5161E0,0E0,0E0,8.603363E-1,0E0,0E0,0E0],"parents":[2147483647,0,0,1,1,2,2,5,5],"right_children":[2,4,6,-1,-1,8,-1,-1,-1],"split_conditions":[1E0,1E0,1E0,-1.4586253E-1,7.088036E-2,1E0,-1.2165733E-1,4.251336E-1,1.9595304E-1],"split_indices":[131,39,123,0,0,39,0,0,0],"split_type":[0,0,0,0,0,0,0,0,0],"sum_hessian":[5.4940994E1,3.0343323E1,2.4597672E1,2.6892128E1,3.451195E0,2.0497536E1,4.100135E0,1.8405389E0,1.8656998E1],"tree_param":{"num_deleted":"0","num_feature":"133","num_nodes":"9","size_leaf_vector":"1"}},{"base_weights":[5.4476067E-2,-4.529515E-1,5.534679E-1,-1.489768E-1,-2.1900915E-1,6.554388E-1,-1.4009021E-1,-1.23841405E-1,9.943004E-2,-8.7024756E-2,7.6233035E-1,-1.0615617E-1,1.0016215E-1,6.3478805E-2,2.4218787E-1],"categories":[],"categories_nodes":[],"categories_segments":[],"categories_sizes":[],"default_left":[0,0,0,0,0,0,0,0,0,0,0,0,0,0,0],"id":106,"left_children":[1,3,5,-1,7,9,-1,-1,-1,11,13,-1,-1,-1,-1],"loss_changes":[1.648674E1,2.2141981E-1,3.7170038E0,0E0,8.7003773E-1,2.46455E0,0E0,0E0,0E0,6.4604706E-1,4.8582172E-1,0E0,0E0,0E0,0E0],"parents":[2147483647,0,0,1,1,2,2,4,4,5,5,9,9,10,10],"right_children":[2,4,6,-1,8,10,-1,-1,-1,12,14,-1,-1,-1,-1],"split_conditions":[1E0,1E0,1E0,-1.489768E-1,1E0,1E0,-1.4009021E-1,-1.23841405E-1,9.943004E-2,1E0,1E0,-1.0615617E-1,1.0016215E-1,6.3478805E-2,2.4218787E-1],"split_indices":[56,72,21,0,28,132,0,0,0,0,41,0,0,0,0],"split_type":[0,0,0,0,0,0,0,0,0,0,0,0,0,0,0],"sum_hessian":[6.312285E1,3.1342627E1,3.1780224E1,2.5469114E1,5.8735137E0,2.9218174E1,2.562049E0,4.529021E0,1.3444928E0,3.7005072E0,2.5517668E1,2.3622472E0,1.3382599E0,2.3567307E0,2.3160936E1],"tree_param":{"num_deleted":"0","num_feature":"133","num_nodes":"15","size_leaf_vector":"1"}},{"base_weights":[-4.4168197E-2,-1.4662917E-1,1.7072201E-1],"categories":[],"categories_nodes":[],"categories_segments":[],"categories_sizes":[],"default_left":[0,0,0],"id":107,"left_children":[1,-1,-1],"loss_changes":[1.5562006E1,0E0,0E0],"parents":[2147483647,0,0],"right_children":[2,-1,-1],"split_conditions":[1E0,-1.4662917E-1,1.7072201E-1],"split_indices":[21,0,0],"split_type":[0,0,0],"sum_hessian":[5.5057842E1,3.2035397E1,2.3022448E1],"tree_param":{"num_deleted":"0","num_feature":"133","num_nodes":"3","size_leaf_vector":"1"}},{"base_weights":[7.9134675E-3,-4.1565657E-1,6.5395296E-1,-1.4654212E-1,1.218246E-1,2.4895238E-2,2.3367552E-1,-9.951328E-2,1.1306207E-1],"categories":[],"categories_nodes":[],"categories_segments":[],"categories_sizes":[],"default_left":[0,0,0,0,0,0,0,0,0],"id":108,"left_children":[1,3,5,-1,-1,7,-1,-1,-1],"loss_changes":[1.5609433E1,2.260642E0,1.755991E0,0E0,0E0,7.244836E-1,0E0,0E0,0E0],"parents":[2147483647,0,0,1,1,2,2,5,5],"right_children":[2,4,6,-1,-1,8,-1,-1,-1],"split_conditions":[1E0,1E0,1E0,-1.4654212E-1,1.218246E-1,1E0,2.3367552E-1,-9.951328E-2,1.1306207E-1],"split_indices":[34,58,44,0,0,18,0,0,0],"split_type":[0,0,0,0,0,0,0,0,0],"sum_hessian":[5.504973E1,3.3465187E1,2.1584543E1,3.1113657E1,2.3515296E0,3.775987E0,1.7808556E1,1.9042654E0,1.8717215E0],"tree_param":{"num_deleted":"0","num_feature":"133","num_nodes":"9","size_leaf_vector":"1"}},{"base_weights":[-6.805183E-2,-1.465572E-1,5.187518E-1,1.1268848E-2,1.6493571E-1],"categories":[],"categories_nodes":[],"categories_segments":[],"categories_sizes":[],"default_left":[0,0,0,0,0],"id":109,"left_children":[1,-1,3,-1,-1],"loss_changes":[1.3772076E1,0E0,3.2813263E-1,0E0,0E0],"parents":[2147483647,0,0,2,2],"right_children":[2,-1,4,-1,-1],"split_conditions":[1E0,-1.465572E-1,1E0,1.1268848E-2,1.6493571E-1],"split_indices":[1,0,128,0,0],"split_type":[0,0,0,0,0],"sum_hessian":[5.3790264E1,3.1433895E1,2.2356367E1,1.4884173E0,2.086795E1],"tree_param":{"num_deleted":"0","num_feature":"133","num_nodes":"5","size_leaf_vector":"1"}},{"base_weights":[-6.296899E-2,-1.4662708E-1,1.6343623E-1],"categories":[],"categories_nodes":[],"categories_segments":[],"categories_sizes":[],"default_left":[0,0,0],"id":110,"left_children":[1,-1,-1],"loss_changes":[1.4563643E1,0E0,0E0],"parents":[2147483647,0,0],"right_children":[2,-1,-1],"split_conditions":[1E0,-1.4662708E-1,1.6343623E-1],"split_indices":[80,0,0],"split_type":[0,0,0],"sum_hessian":[5.425014E1,3.201592E1,2.2234224E1],"tree_param":{"num_deleted":"0","num_feature":"133","num_nodes":"3","size_leaf_vector":"1"}},{"base_weights":[-6.2062815E-2,-1.4662845E-1,1.6650897E-1],"categories":[],"categories_nodes":[],"categories_segments":[],"categories_sizes":[],"default_left":[0,0,0],"id":111,"left_children":[1,-1,-1],"loss_changes":[1.4747519E1,0E0,0E0],"parents":[2147483647,0,0],"right_children":[2,-1,-1],"split_conditions":[1E0,-1.4662845E-1,1.6650897E-1],"split_indices":[15,0,0],"split_type":[0,0,0],"sum_hessian":[5.3977386E1,3.2034542E1,2.1942842E1],"tree_param":{"num_deleted":"0","num_feature":"133","num_nodes":"3","size_leaf_vector":"1"}},{"base_weights":[7.571481E-3,-4.467959E-1,2.3034616E-1,-1.4662257E-1,9.933328E-2],"categories":[],"categories_nodes":[],"categories_segments":[],"categories_sizes":[],"default_left":[0,0,0,0,0],"id":112,"left_children":[1,3,-1,-1,-1],"loss_changes":[1.9005903E1,1.2858968E0,0E0,0E0,0E0],"parents":[2147483647,0,0,1,1],"right_children":[2,4,-1,-1,-1],"split_conditions":[1E0,1E0,2.3034616E-1,-1.4662257E-1,9.933328E-2],"split_indices":[129,10,0,0,0],"split_type":[0,0,0,0,0],"sum_hessian":[5.30275E1,3.344888E1,1.957862E1,3.2090244E1,1.3586351E0],"tree_param":{"num_deleted":"0","num_feature":"133","num_nodes":"5","size_leaf_vector":"1"}},{"base_weights":[5.4194175E-2,-4.444472E-1,7.3448575E-1,-1.4597702E-1,-5.7717234E-2,8.989069E-1,-1.101317E-1,-1.0004934E-1,9.8816074E-2,9.309436E-2,2.7811825E-1],"categories":[],"categories_nodes":[],"categories_segments":[],"categories_sizes":[],"default_left":[0,0,0,0,0,0,0,0,0,0,0],"id":113,"left_children":[1,3,5,-1,7,9,-1,-1,-1,-1,-1],"loss_changes":[1.8628242E1,4.8946667E-1,4.531492E0,0E0,5.6409854E-1,5.1595688E-2,0E0,0E0,0E0,0E0,0E0],"parents":[2147483647,0,0,1,1,2,2,4,4,5,5],"right_children":[2,4,6,-1,8,10,-1,-1,-1,-1,-1],"split_conditions":[1E0,1E0,1E0,-1.4597702E-1,1E0,1E0,-1.101317E-1,-1.0004934E-1,9.8816074E-2,9.309436E-2,2.7811825E-1],"split_indices":[28,128,131,0,0,45,0,0,0,0,0],"split_type":[0,0,0,0,0,0,0,0,0,0,0],"sum_hessian":[5.2952362E1,3.0755686E1,2.2196678E1,2.7500658E1,3.2550266E0,1.947402E1,2.722658E0,1.981703E0,1.2733235E0,1.4377692E0,1.8036251E1],"tree_param":{"num_deleted":"0","num_feature":"133","num_nodes":"11","size_leaf_vector":"1"}},{"base_weights":[2.4586942E-2,-1.463537E-1,6.238447E-1,7.130482E-1,-9.965547E-2,5.2500886E-1,1.650669E-1],"categories":[],"categories_nodes":[],"categories_segments":[],"categories_sizes":[],"default_left":[0,0,0,0,0,0,0],"id":114,"left_children":[1,-1,3,5,-1,-1,-1],"loss_changes":[1.7656115E1,0E0,2.4955492E0,3.181037E0,0E0,0E0,0E0],"parents":[2147483647,0,0,2,2,3,3],"right_children":[2,-1,4,6,-1,-1,-1],"split_conditions":[1E0,-1.463537E-1,1E0,1E0,-9.965547E-2,5.2500886E-1,1.650669E-1],"split_indices":[69,0,64,110,0,0,0],"split_type":[0,0,0,0,0,0,0],"sum_hessian":[5.550586E1,3.0020706E1,2.5485153E1,2.3542635E1,1.9425178E0,1.8720777E0,2.1670557E1],"tree_param":{"num_deleted":"0","num_feature":"133","num_nodes":"7","size_leaf_vector":"1"}},{"base_weights":[2.9303096E-2,-4.5280212E-1,7.301342E-1,-1.4665443E-1,9.3000315E-2,5.7925695E-1,1.6532125E-1],"categories":[],"categories_nodes":[],"categories_segments":[],"categories_sizes":[],"default_left":[0,0,0,0,0,0,0],"id":115,"left_children":[1,3,5,-1,-1,-1,-1],"loss_changes":[1.954119E1,1.094718E0,4.000392E0,0E0,0E0,0E0,0E0],"parents":[2147483647,0,0,1,1,2,2],"right_children":[2,4,6,-1,-1,-1,-1],"split_conditions":[1E0,1E0,1E0,-1.4665443E-1,9.3000315E-2,5.7925695E-1,1.6532125E-1],"split_indices":[2,122,122,0,0,0,0],"split_type":[0,0,0,0,0,0,0],"sum_hessian":[5.585719E1,3.3302288E1,2.2554903E1,3.2142548E1,1.1597393E0,1.657478E0,2.0897425E1],"tree_param":{"num_deleted":"0","num_feature":"133","num_nodes":"7","size_leaf_vector":"1"}},{"base_weights":[1.557565E-2,-4.4144616E-1,2.2984122E-1,-1.4665456E-1,1.06583394E-1],"categories":[],"categories_nodes":[],"categories_segments":[],"categories_sizes":[],"default_left":[0,0,0,0,0],"id":116,"left_children":[1,3,-1,-1,-1],"loss_changes":[1.9129757E1,1.4835649E0,0E0,0E0,0E0],"parents":[2147483647,0,0,1,1],"right_children":[2,4,-1,-1,-1],"split_conditions":[1E0,1E0,2.2984122E-1,-1.4665456E-1,1.06583394E-1],"split_indices":[57,46,0,0,0],"split_type":[0,0,0,0,0],"sum_hessian":[5.378217E1,3.3683758E1,2.009841E1,3.2156956E1,1.5268023E0],"tree_param":{"num_deleted":"0","num_feature":"133","num_nodes":"5","size_leaf_vector":"1"}},{"base_weights":[5.2817627E-3,-4.285441E-1,2.2726227E-1,-1.4661275E-1,1.15973584E-1],"categories":[],"categories_nodes":[],"categories_segments":[],"categories_sizes":[],"default_left":[0,0,0,0,0],"id":117,"left_children":[1,3,-1,-1,-1],"loss_changes":[1.7994465E1,1.904347E0,0E0,0E0,0E0],"parents":[2147483647,0,0,1,1],"right_children":[2,4,-1,-1,-1],"split_conditions":[1E0,1E0,2.2726227E-1,-1.4661275E-1,1.15973584E-1],"split_indices":[126,4,0,0,0],"split_type":[0,0,0,0,0],"sum_hessian":[5.314387E1,3.397874E1,1.9165129E1,3.2016052E1,1.9626895E0],"tree_param":{"num_deleted":"0","num_feature":"133","num_nodes":"5","size_leaf_vector":"1"}},{"base_weights":[-7.456355E-3,-4.4193247E-1,2.1832179E-1,-1.4663664E-1,1.0578126E-1],"categories":[],"categories_nodes":[],"categories_segments":[],"categories_sizes":[],"default_left":[0,0,0,0,0],"id":118,"left_children":[1,3,-1,-1,-1],"loss_changes":[1.7590757E1,1.4606061E0,0E0,0E0,0E0],"parents":[2147483647,0,0,1,1],"right_children":[2,4,-1,-1,-1],"split_conditions":[1E0,1E0,2.1832179E-1,-1.4663664E-1,1.0578126E-1],"split_indices":[81,51,0,0,0],"split_type":[0,0,0,0,0],